network unknown {
}
variable U_dyslipidemia {
    type discrete [ 16 ] { 0, 1, 2, 3, 4, 5, 6, 7, 8, 9, 10, 11, 12, 13, 14, 15 };
    property weight = None ;
}
variable U_hormons_neo {
    type discrete [ 2 ] { 0, 1 };
    property weight = None ;
}
variable U_hypertension {
    type discrete [ 16 ] { 0, 1, 2, 3, 4, 5, 6, 7, 8, 9, 10, 11, 12, 13, 14, 15 };
    property weight = None ;
}
variable U_ischemic_heart_disease {
    type discrete [ 256 ] { 0, 1, 2, 3, 4, 5, 6, 7, 8, 9, 10, 11, 12, 13, 14, 15, 16, 17, 18, 19, 20, 21, 22, 23, 24, 25, 26, 27, 28, 29, 30, 31, 32, 33, 34, 35, 36, 37, 38, 39, 40, 41, 42, 43, 44, 45, 46, 47, 48, 49, 50, 51, 52, 53, 54, 55, 56, 57, 58, 59, 60, 61, 62, 63, 64, 65, 66, 67, 68, 69, 70, 71, 72, 73, 74, 75, 76, 77, 78, 79, 80, 81, 82, 83, 84, 85, 86, 87, 88, 89, 90, 91, 92, 93, 94, 95, 96, 97, 98, 99, 100, 101, 102, 103, 104, 105, 106, 107, 108, 109, 110, 111, 112, 113, 114, 115, 116, 117, 118, 119, 120, 121, 122, 123, 124, 125, 126, 127, 128, 129, 130, 131, 132, 133, 134, 135, 136, 137, 138, 139, 140, 141, 142, 143, 144, 145, 146, 147, 148, 149, 150, 151, 152, 153, 154, 155, 156, 157, 158, 159, 160, 161, 162, 163, 164, 165, 166, 167, 168, 169, 170, 171, 172, 173, 174, 175, 176, 177, 178, 179, 180, 181, 182, 183, 184, 185, 186, 187, 188, 189, 190, 191, 192, 193, 194, 195, 196, 197, 198, 199, 200, 201, 202, 203, 204, 205, 206, 207, 208, 209, 210, 211, 212, 213, 214, 215, 216, 217, 218, 219, 220, 221, 222, 223, 224, 225, 226, 227, 228, 229, 230, 231, 232, 233, 234, 235, 236, 237, 238, 239, 240, 241, 242, 243, 244, 245, 246, 247, 248, 249, 250, 251, 252, 253, 254, 255 };
    property weight = None ;
}
variable U_t2db {
    type discrete [ 2 ] { 0, 1 };
    property weight = None ;
}
variable dyslipidemia {
    type discrete [ 2 ] { no, yes };
    property weight = None ;
}
variable hormons_neo {
    type discrete [ 2 ] { no, yes };
    property weight = None ;
}
variable hypertension {
    type discrete [ 2 ] { no, yes };
    property weight = None ;
}
variable ischemic_heart_disease {
    type discrete [ 2 ] { no, yes };
    property weight = None ;
}
variable t2db {
    type discrete [ 2 ] { no, yes };
    property weight = None ;
}
probability ( U_dyslipidemia ) {
    table 0.0625, 0.0625, 0.0625, 0.0625, 0.0625, 0.0625, 0.0625, 0.0625, 0.0625, 0.0625, 0.0625, 0.0625, 0.0625, 0.0625, 0.0625, 0.0625 ;
}
probability ( U_hormons_neo ) {
    table 0.5, 0.5 ;
}
probability ( U_hypertension ) {
    table 0.0625, 0.0625, 0.0625, 0.0625, 0.0625, 0.0625, 0.0625, 0.0625, 0.0625, 0.0625, 0.0625, 0.0625, 0.0625, 0.0625, 0.0625, 0.0625 ;
}
probability ( U_ischemic_heart_disease ) {
    table 0.00390625, 0.00390625, 0.00390625, 0.00390625, 0.00390625, 0.00390625, 0.00390625, 0.00390625, 0.00390625, 0.00390625, 0.00390625, 0.00390625, 0.00390625, 0.00390625, 0.00390625, 0.00390625, 0.00390625, 0.00390625, 0.00390625, 0.00390625, 0.00390625, 0.00390625, 0.00390625, 0.00390625, 0.00390625, 0.00390625, 0.00390625, 0.00390625, 0.00390625, 0.00390625, 0.00390625, 0.00390625, 0.00390625, 0.00390625, 0.00390625, 0.00390625, 0.00390625, 0.00390625, 0.00390625, 0.00390625, 0.00390625, 0.00390625, 0.00390625, 0.00390625, 0.00390625, 0.00390625, 0.00390625, 0.00390625, 0.00390625, 0.00390625, 0.00390625, 0.00390625, 0.00390625, 0.00390625, 0.00390625, 0.00390625, 0.00390625, 0.00390625, 0.00390625, 0.00390625, 0.00390625, 0.00390625, 0.00390625, 0.00390625, 0.00390625, 0.00390625, 0.00390625, 0.00390625, 0.00390625, 0.00390625, 0.00390625, 0.00390625, 0.00390625, 0.00390625, 0.00390625, 0.00390625, 0.00390625, 0.00390625, 0.00390625, 0.00390625, 0.00390625, 0.00390625, 0.00390625, 0.00390625, 0.00390625, 0.00390625, 0.00390625, 0.00390625, 0.00390625, 0.00390625, 0.00390625, 0.00390625, 0.00390625, 0.00390625, 0.00390625, 0.00390625, 0.00390625, 0.00390625, 0.00390625, 0.00390625, 0.00390625, 0.00390625, 0.00390625, 0.00390625, 0.00390625, 0.00390625, 0.00390625, 0.00390625, 0.00390625, 0.00390625, 0.00390625, 0.00390625, 0.00390625, 0.00390625, 0.00390625, 0.00390625, 0.00390625, 0.00390625, 0.00390625, 0.00390625, 0.00390625, 0.00390625, 0.00390625, 0.00390625, 0.00390625, 0.00390625, 0.00390625, 0.00390625, 0.00390625, 0.00390625, 0.00390625, 0.00390625, 0.00390625, 0.00390625, 0.00390625, 0.00390625, 0.00390625, 0.00390625, 0.00390625, 0.00390625, 0.00390625, 0.00390625, 0.00390625, 0.00390625, 0.00390625, 0.00390625, 0.00390625, 0.00390625, 0.00390625, 0.00390625, 0.00390625, 0.00390625, 0.00390625, 0.00390625, 0.00390625, 0.00390625, 0.00390625, 0.00390625, 0.00390625, 0.00390625, 0.00390625, 0.00390625, 0.00390625, 0.00390625, 0.00390625, 0.00390625, 0.00390625, 0.00390625, 0.00390625, 0.00390625, 0.00390625, 0.00390625, 0.00390625, 0.00390625, 0.00390625, 0.00390625, 0.00390625, 0.00390625, 0.00390625, 0.00390625, 0.00390625, 0.00390625, 0.00390625, 0.00390625, 0.00390625, 0.00390625, 0.00390625, 0.00390625, 0.00390625, 0.00390625, 0.00390625, 0.00390625, 0.00390625, 0.00390625, 0.00390625, 0.00390625, 0.00390625, 0.00390625, 0.00390625, 0.00390625, 0.00390625, 0.00390625, 0.00390625, 0.00390625, 0.00390625, 0.00390625, 0.00390625, 0.00390625, 0.00390625, 0.00390625, 0.00390625, 0.00390625, 0.00390625, 0.00390625, 0.00390625, 0.00390625, 0.00390625, 0.00390625, 0.00390625, 0.00390625, 0.00390625, 0.00390625, 0.00390625, 0.00390625, 0.00390625, 0.00390625, 0.00390625, 0.00390625, 0.00390625, 0.00390625, 0.00390625, 0.00390625, 0.00390625, 0.00390625, 0.00390625, 0.00390625, 0.00390625, 0.00390625, 0.00390625, 0.00390625, 0.00390625, 0.00390625, 0.00390625, 0.00390625, 0.00390625, 0.00390625, 0.00390625, 0.00390625, 0.00390625, 0.00390625, 0.00390625, 0.00390625, 0.00390625, 0.00390625, 0.00390625, 0.00390625 ;
}
probability ( U_t2db ) {
    table 0.5, 0.5 ;
}
probability ( dyslipidemia | hormons_neo, t2db, U_dyslipidemia ) {
    ( no, no, 0 ) 1.0, 0.0;
    ( no, no, 1 ) 1.0, 0.0;
    ( no, no, 2 ) 1.0, 0.0;
    ( no, no, 3 ) 1.0, 0.0;
    ( no, no, 4 ) 1.0, 0.0;
    ( no, no, 5 ) 1.0, 0.0;
    ( no, no, 6 ) 1.0, 0.0;
    ( no, no, 7 ) 1.0, 0.0;
    ( no, no, 8 ) 0.0, 1.0;
    ( no, no, 9 ) 0.0, 1.0;
    ( no, no, 10 ) 0.0, 1.0;
    ( no, no, 11 ) 0.0, 1.0;
    ( no, no, 12 ) 0.0, 1.0;
    ( no, no, 13 ) 0.0, 1.0;
    ( no, no, 14 ) 0.0, 1.0;
    ( no, no, 15 ) 0.0, 1.0;
    ( no, yes, 0 ) 1.0, 0.0;
    ( no, yes, 1 ) 1.0, 0.0;
    ( no, yes, 2 ) 1.0, 0.0;
    ( no, yes, 3 ) 1.0, 0.0;
    ( no, yes, 4 ) 0.0, 1.0;
    ( no, yes, 5 ) 0.0, 1.0;
    ( no, yes, 6 ) 0.0, 1.0;
    ( no, yes, 7 ) 0.0, 1.0;
    ( no, yes, 8 ) 1.0, 0.0;
    ( no, yes, 9 ) 1.0, 0.0;
    ( no, yes, 10 ) 1.0, 0.0;
    ( no, yes, 11 ) 1.0, 0.0;
    ( no, yes, 12 ) 0.0, 1.0;
    ( no, yes, 13 ) 0.0, 1.0;
    ( no, yes, 14 ) 0.0, 1.0;
    ( no, yes, 15 ) 0.0, 1.0;
    ( yes, no, 0 ) 1.0, 0.0;
    ( yes, no, 1 ) 1.0, 0.0;
    ( yes, no, 2 ) 0.0, 1.0;
    ( yes, no, 3 ) 0.0, 1.0;
    ( yes, no, 4 ) 1.0, 0.0;
    ( yes, no, 5 ) 1.0, 0.0;
    ( yes, no, 6 ) 0.0, 1.0;
    ( yes, no, 7 ) 0.0, 1.0;
    ( yes, no, 8 ) 1.0, 0.0;
    ( yes, no, 9 ) 1.0, 0.0;
    ( yes, no, 10 ) 0.0, 1.0;
    ( yes, no, 11 ) 0.0, 1.0;
    ( yes, no, 12 ) 1.0, 0.0;
    ( yes, no, 13 ) 1.0, 0.0;
    ( yes, no, 14 ) 0.0, 1.0;
    ( yes, no, 15 ) 0.0, 1.0;
    ( yes, yes, 0 ) 1.0, 0.0;
    ( yes, yes, 1 ) 0.0, 1.0;
    ( yes, yes, 2 ) 1.0, 0.0;
    ( yes, yes, 3 ) 0.0, 1.0;
    ( yes, yes, 4 ) 1.0, 0.0;
    ( yes, yes, 5 ) 0.0, 1.0;
    ( yes, yes, 6 ) 1.0, 0.0;
    ( yes, yes, 7 ) 0.0, 1.0;
    ( yes, yes, 8 ) 1.0, 0.0;
    ( yes, yes, 9 ) 0.0, 1.0;
    ( yes, yes, 10 ) 1.0, 0.0;
    ( yes, yes, 11 ) 0.0, 1.0;
    ( yes, yes, 12 ) 1.0, 0.0;
    ( yes, yes, 13 ) 0.0, 1.0;
    ( yes, yes, 14 ) 1.0, 0.0;
    ( yes, yes, 15 ) 0.0, 1.0;

}
probability ( hormons_neo | U_hormons_neo ) {
    ( 0 ) 1.0, 0.0;
    ( 1 ) 0.0, 1.0;

}
probability ( hypertension | hormons_neo, t2db, U_hypertension ) {
    ( no, no, 0 ) 1.0, 0.0;
    ( no, no, 1 ) 1.0, 0.0;
    ( no, no, 2 ) 1.0, 0.0;
    ( no, no, 3 ) 1.0, 0.0;
    ( no, no, 4 ) 1.0, 0.0;
    ( no, no, 5 ) 1.0, 0.0;
    ( no, no, 6 ) 1.0, 0.0;
    ( no, no, 7 ) 1.0, 0.0;
    ( no, no, 8 ) 0.0, 1.0;
    ( no, no, 9 ) 0.0, 1.0;
    ( no, no, 10 ) 0.0, 1.0;
    ( no, no, 11 ) 0.0, 1.0;
    ( no, no, 12 ) 0.0, 1.0;
    ( no, no, 13 ) 0.0, 1.0;
    ( no, no, 14 ) 0.0, 1.0;
    ( no, no, 15 ) 0.0, 1.0;
    ( no, yes, 0 ) 1.0, 0.0;
    ( no, yes, 1 ) 1.0, 0.0;
    ( no, yes, 2 ) 1.0, 0.0;
    ( no, yes, 3 ) 1.0, 0.0;
    ( no, yes, 4 ) 0.0, 1.0;
    ( no, yes, 5 ) 0.0, 1.0;
    ( no, yes, 6 ) 0.0, 1.0;
    ( no, yes, 7 ) 0.0, 1.0;
    ( no, yes, 8 ) 1.0, 0.0;
    ( no, yes, 9 ) 1.0, 0.0;
    ( no, yes, 10 ) 1.0, 0.0;
    ( no, yes, 11 ) 1.0, 0.0;
    ( no, yes, 12 ) 0.0, 1.0;
    ( no, yes, 13 ) 0.0, 1.0;
    ( no, yes, 14 ) 0.0, 1.0;
    ( no, yes, 15 ) 0.0, 1.0;
    ( yes, no, 0 ) 1.0, 0.0;
    ( yes, no, 1 ) 1.0, 0.0;
    ( yes, no, 2 ) 0.0, 1.0;
    ( yes, no, 3 ) 0.0, 1.0;
    ( yes, no, 4 ) 1.0, 0.0;
    ( yes, no, 5 ) 1.0, 0.0;
    ( yes, no, 6 ) 0.0, 1.0;
    ( yes, no, 7 ) 0.0, 1.0;
    ( yes, no, 8 ) 1.0, 0.0;
    ( yes, no, 9 ) 1.0, 0.0;
    ( yes, no, 10 ) 0.0, 1.0;
    ( yes, no, 11 ) 0.0, 1.0;
    ( yes, no, 12 ) 1.0, 0.0;
    ( yes, no, 13 ) 1.0, 0.0;
    ( yes, no, 14 ) 0.0, 1.0;
    ( yes, no, 15 ) 0.0, 1.0;
    ( yes, yes, 0 ) 1.0, 0.0;
    ( yes, yes, 1 ) 0.0, 1.0;
    ( yes, yes, 2 ) 1.0, 0.0;
    ( yes, yes, 3 ) 0.0, 1.0;
    ( yes, yes, 4 ) 1.0, 0.0;
    ( yes, yes, 5 ) 0.0, 1.0;
    ( yes, yes, 6 ) 1.0, 0.0;
    ( yes, yes, 7 ) 0.0, 1.0;
    ( yes, yes, 8 ) 1.0, 0.0;
    ( yes, yes, 9 ) 0.0, 1.0;
    ( yes, yes, 10 ) 1.0, 0.0;
    ( yes, yes, 11 ) 0.0, 1.0;
    ( yes, yes, 12 ) 1.0, 0.0;
    ( yes, yes, 13 ) 0.0, 1.0;
    ( yes, yes, 14 ) 1.0, 0.0;
    ( yes, yes, 15 ) 0.0, 1.0;

}
probability ( ischemic_heart_disease | dyslipidemia, hormons_neo, hypertension, U_ischemic_heart_disease ) {
    ( no, no, no, 0 ) 1.0, 0.0;
    ( no, no, no, 1 ) 1.0, 0.0;
    ( no, no, no, 2 ) 1.0, 0.0;
    ( no, no, no, 3 ) 1.0, 0.0;
    ( no, no, no, 4 ) 1.0, 0.0;
    ( no, no, no, 5 ) 1.0, 0.0;
    ( no, no, no, 6 ) 1.0, 0.0;
    ( no, no, no, 7 ) 1.0, 0.0;
    ( no, no, no, 8 ) 1.0, 0.0;
    ( no, no, no, 9 ) 1.0, 0.0;
    ( no, no, no, 10 ) 1.0, 0.0;
    ( no, no, no, 11 ) 1.0, 0.0;
    ( no, no, no, 12 ) 1.0, 0.0;
    ( no, no, no, 13 ) 1.0, 0.0;
    ( no, no, no, 14 ) 1.0, 0.0;
    ( no, no, no, 15 ) 1.0, 0.0;
    ( no, no, no, 16 ) 1.0, 0.0;
    ( no, no, no, 17 ) 1.0, 0.0;
    ( no, no, no, 18 ) 1.0, 0.0;
    ( no, no, no, 19 ) 1.0, 0.0;
    ( no, no, no, 20 ) 1.0, 0.0;
    ( no, no, no, 21 ) 1.0, 0.0;
    ( no, no, no, 22 ) 1.0, 0.0;
    ( no, no, no, 23 ) 1.0, 0.0;
    ( no, no, no, 24 ) 1.0, 0.0;
    ( no, no, no, 25 ) 1.0, 0.0;
    ( no, no, no, 26 ) 1.0, 0.0;
    ( no, no, no, 27 ) 1.0, 0.0;
    ( no, no, no, 28 ) 1.0, 0.0;
    ( no, no, no, 29 ) 1.0, 0.0;
    ( no, no, no, 30 ) 1.0, 0.0;
    ( no, no, no, 31 ) 1.0, 0.0;
    ( no, no, no, 32 ) 1.0, 0.0;
    ( no, no, no, 33 ) 1.0, 0.0;
    ( no, no, no, 34 ) 1.0, 0.0;
    ( no, no, no, 35 ) 1.0, 0.0;
    ( no, no, no, 36 ) 1.0, 0.0;
    ( no, no, no, 37 ) 1.0, 0.0;
    ( no, no, no, 38 ) 1.0, 0.0;
    ( no, no, no, 39 ) 1.0, 0.0;
    ( no, no, no, 40 ) 1.0, 0.0;
    ( no, no, no, 41 ) 1.0, 0.0;
    ( no, no, no, 42 ) 1.0, 0.0;
    ( no, no, no, 43 ) 1.0, 0.0;
    ( no, no, no, 44 ) 1.0, 0.0;
    ( no, no, no, 45 ) 1.0, 0.0;
    ( no, no, no, 46 ) 1.0, 0.0;
    ( no, no, no, 47 ) 1.0, 0.0;
    ( no, no, no, 48 ) 1.0, 0.0;
    ( no, no, no, 49 ) 1.0, 0.0;
    ( no, no, no, 50 ) 1.0, 0.0;
    ( no, no, no, 51 ) 1.0, 0.0;
    ( no, no, no, 52 ) 1.0, 0.0;
    ( no, no, no, 53 ) 1.0, 0.0;
    ( no, no, no, 54 ) 1.0, 0.0;
    ( no, no, no, 55 ) 1.0, 0.0;
    ( no, no, no, 56 ) 1.0, 0.0;
    ( no, no, no, 57 ) 1.0, 0.0;
    ( no, no, no, 58 ) 1.0, 0.0;
    ( no, no, no, 59 ) 1.0, 0.0;
    ( no, no, no, 60 ) 1.0, 0.0;
    ( no, no, no, 61 ) 1.0, 0.0;
    ( no, no, no, 62 ) 1.0, 0.0;
    ( no, no, no, 63 ) 1.0, 0.0;
    ( no, no, no, 64 ) 1.0, 0.0;
    ( no, no, no, 65 ) 1.0, 0.0;
    ( no, no, no, 66 ) 1.0, 0.0;
    ( no, no, no, 67 ) 1.0, 0.0;
    ( no, no, no, 68 ) 1.0, 0.0;
    ( no, no, no, 69 ) 1.0, 0.0;
    ( no, no, no, 70 ) 1.0, 0.0;
    ( no, no, no, 71 ) 1.0, 0.0;
    ( no, no, no, 72 ) 1.0, 0.0;
    ( no, no, no, 73 ) 1.0, 0.0;
    ( no, no, no, 74 ) 1.0, 0.0;
    ( no, no, no, 75 ) 1.0, 0.0;
    ( no, no, no, 76 ) 1.0, 0.0;
    ( no, no, no, 77 ) 1.0, 0.0;
    ( no, no, no, 78 ) 1.0, 0.0;
    ( no, no, no, 79 ) 1.0, 0.0;
    ( no, no, no, 80 ) 1.0, 0.0;
    ( no, no, no, 81 ) 1.0, 0.0;
    ( no, no, no, 82 ) 1.0, 0.0;
    ( no, no, no, 83 ) 1.0, 0.0;
    ( no, no, no, 84 ) 1.0, 0.0;
    ( no, no, no, 85 ) 1.0, 0.0;
    ( no, no, no, 86 ) 1.0, 0.0;
    ( no, no, no, 87 ) 1.0, 0.0;
    ( no, no, no, 88 ) 1.0, 0.0;
    ( no, no, no, 89 ) 1.0, 0.0;
    ( no, no, no, 90 ) 1.0, 0.0;
    ( no, no, no, 91 ) 1.0, 0.0;
    ( no, no, no, 92 ) 1.0, 0.0;
    ( no, no, no, 93 ) 1.0, 0.0;
    ( no, no, no, 94 ) 1.0, 0.0;
    ( no, no, no, 95 ) 1.0, 0.0;
    ( no, no, no, 96 ) 1.0, 0.0;
    ( no, no, no, 97 ) 1.0, 0.0;
    ( no, no, no, 98 ) 1.0, 0.0;
    ( no, no, no, 99 ) 1.0, 0.0;
    ( no, no, no, 100 ) 1.0, 0.0;
    ( no, no, no, 101 ) 1.0, 0.0;
    ( no, no, no, 102 ) 1.0, 0.0;
    ( no, no, no, 103 ) 1.0, 0.0;
    ( no, no, no, 104 ) 1.0, 0.0;
    ( no, no, no, 105 ) 1.0, 0.0;
    ( no, no, no, 106 ) 1.0, 0.0;
    ( no, no, no, 107 ) 1.0, 0.0;
    ( no, no, no, 108 ) 1.0, 0.0;
    ( no, no, no, 109 ) 1.0, 0.0;
    ( no, no, no, 110 ) 1.0, 0.0;
    ( no, no, no, 111 ) 1.0, 0.0;
    ( no, no, no, 112 ) 1.0, 0.0;
    ( no, no, no, 113 ) 1.0, 0.0;
    ( no, no, no, 114 ) 1.0, 0.0;
    ( no, no, no, 115 ) 1.0, 0.0;
    ( no, no, no, 116 ) 1.0, 0.0;
    ( no, no, no, 117 ) 1.0, 0.0;
    ( no, no, no, 118 ) 1.0, 0.0;
    ( no, no, no, 119 ) 1.0, 0.0;
    ( no, no, no, 120 ) 1.0, 0.0;
    ( no, no, no, 121 ) 1.0, 0.0;
    ( no, no, no, 122 ) 1.0, 0.0;
    ( no, no, no, 123 ) 1.0, 0.0;
    ( no, no, no, 124 ) 1.0, 0.0;
    ( no, no, no, 125 ) 1.0, 0.0;
    ( no, no, no, 126 ) 1.0, 0.0;
    ( no, no, no, 127 ) 1.0, 0.0;
    ( no, no, no, 128 ) 0.0, 1.0;
    ( no, no, no, 129 ) 0.0, 1.0;
    ( no, no, no, 130 ) 0.0, 1.0;
    ( no, no, no, 131 ) 0.0, 1.0;
    ( no, no, no, 132 ) 0.0, 1.0;
    ( no, no, no, 133 ) 0.0, 1.0;
    ( no, no, no, 134 ) 0.0, 1.0;
    ( no, no, no, 135 ) 0.0, 1.0;
    ( no, no, no, 136 ) 0.0, 1.0;
    ( no, no, no, 137 ) 0.0, 1.0;
    ( no, no, no, 138 ) 0.0, 1.0;
    ( no, no, no, 139 ) 0.0, 1.0;
    ( no, no, no, 140 ) 0.0, 1.0;
    ( no, no, no, 141 ) 0.0, 1.0;
    ( no, no, no, 142 ) 0.0, 1.0;
    ( no, no, no, 143 ) 0.0, 1.0;
    ( no, no, no, 144 ) 0.0, 1.0;
    ( no, no, no, 145 ) 0.0, 1.0;
    ( no, no, no, 146 ) 0.0, 1.0;
    ( no, no, no, 147 ) 0.0, 1.0;
    ( no, no, no, 148 ) 0.0, 1.0;
    ( no, no, no, 149 ) 0.0, 1.0;
    ( no, no, no, 150 ) 0.0, 1.0;
    ( no, no, no, 151 ) 0.0, 1.0;
    ( no, no, no, 152 ) 0.0, 1.0;
    ( no, no, no, 153 ) 0.0, 1.0;
    ( no, no, no, 154 ) 0.0, 1.0;
    ( no, no, no, 155 ) 0.0, 1.0;
    ( no, no, no, 156 ) 0.0, 1.0;
    ( no, no, no, 157 ) 0.0, 1.0;
    ( no, no, no, 158 ) 0.0, 1.0;
    ( no, no, no, 159 ) 0.0, 1.0;
    ( no, no, no, 160 ) 0.0, 1.0;
    ( no, no, no, 161 ) 0.0, 1.0;
    ( no, no, no, 162 ) 0.0, 1.0;
    ( no, no, no, 163 ) 0.0, 1.0;
    ( no, no, no, 164 ) 0.0, 1.0;
    ( no, no, no, 165 ) 0.0, 1.0;
    ( no, no, no, 166 ) 0.0, 1.0;
    ( no, no, no, 167 ) 0.0, 1.0;
    ( no, no, no, 168 ) 0.0, 1.0;
    ( no, no, no, 169 ) 0.0, 1.0;
    ( no, no, no, 170 ) 0.0, 1.0;
    ( no, no, no, 171 ) 0.0, 1.0;
    ( no, no, no, 172 ) 0.0, 1.0;
    ( no, no, no, 173 ) 0.0, 1.0;
    ( no, no, no, 174 ) 0.0, 1.0;
    ( no, no, no, 175 ) 0.0, 1.0;
    ( no, no, no, 176 ) 0.0, 1.0;
    ( no, no, no, 177 ) 0.0, 1.0;
    ( no, no, no, 178 ) 0.0, 1.0;
    ( no, no, no, 179 ) 0.0, 1.0;
    ( no, no, no, 180 ) 0.0, 1.0;
    ( no, no, no, 181 ) 0.0, 1.0;
    ( no, no, no, 182 ) 0.0, 1.0;
    ( no, no, no, 183 ) 0.0, 1.0;
    ( no, no, no, 184 ) 0.0, 1.0;
    ( no, no, no, 185 ) 0.0, 1.0;
    ( no, no, no, 186 ) 0.0, 1.0;
    ( no, no, no, 187 ) 0.0, 1.0;
    ( no, no, no, 188 ) 0.0, 1.0;
    ( no, no, no, 189 ) 0.0, 1.0;
    ( no, no, no, 190 ) 0.0, 1.0;
    ( no, no, no, 191 ) 0.0, 1.0;
    ( no, no, no, 192 ) 0.0, 1.0;
    ( no, no, no, 193 ) 0.0, 1.0;
    ( no, no, no, 194 ) 0.0, 1.0;
    ( no, no, no, 195 ) 0.0, 1.0;
    ( no, no, no, 196 ) 0.0, 1.0;
    ( no, no, no, 197 ) 0.0, 1.0;
    ( no, no, no, 198 ) 0.0, 1.0;
    ( no, no, no, 199 ) 0.0, 1.0;
    ( no, no, no, 200 ) 0.0, 1.0;
    ( no, no, no, 201 ) 0.0, 1.0;
    ( no, no, no, 202 ) 0.0, 1.0;
    ( no, no, no, 203 ) 0.0, 1.0;
    ( no, no, no, 204 ) 0.0, 1.0;
    ( no, no, no, 205 ) 0.0, 1.0;
    ( no, no, no, 206 ) 0.0, 1.0;
    ( no, no, no, 207 ) 0.0, 1.0;
    ( no, no, no, 208 ) 0.0, 1.0;
    ( no, no, no, 209 ) 0.0, 1.0;
    ( no, no, no, 210 ) 0.0, 1.0;
    ( no, no, no, 211 ) 0.0, 1.0;
    ( no, no, no, 212 ) 0.0, 1.0;
    ( no, no, no, 213 ) 0.0, 1.0;
    ( no, no, no, 214 ) 0.0, 1.0;
    ( no, no, no, 215 ) 0.0, 1.0;
    ( no, no, no, 216 ) 0.0, 1.0;
    ( no, no, no, 217 ) 0.0, 1.0;
    ( no, no, no, 218 ) 0.0, 1.0;
    ( no, no, no, 219 ) 0.0, 1.0;
    ( no, no, no, 220 ) 0.0, 1.0;
    ( no, no, no, 221 ) 0.0, 1.0;
    ( no, no, no, 222 ) 0.0, 1.0;
    ( no, no, no, 223 ) 0.0, 1.0;
    ( no, no, no, 224 ) 0.0, 1.0;
    ( no, no, no, 225 ) 0.0, 1.0;
    ( no, no, no, 226 ) 0.0, 1.0;
    ( no, no, no, 227 ) 0.0, 1.0;
    ( no, no, no, 228 ) 0.0, 1.0;
    ( no, no, no, 229 ) 0.0, 1.0;
    ( no, no, no, 230 ) 0.0, 1.0;
    ( no, no, no, 231 ) 0.0, 1.0;
    ( no, no, no, 232 ) 0.0, 1.0;
    ( no, no, no, 233 ) 0.0, 1.0;
    ( no, no, no, 234 ) 0.0, 1.0;
    ( no, no, no, 235 ) 0.0, 1.0;
    ( no, no, no, 236 ) 0.0, 1.0;
    ( no, no, no, 237 ) 0.0, 1.0;
    ( no, no, no, 238 ) 0.0, 1.0;
    ( no, no, no, 239 ) 0.0, 1.0;
    ( no, no, no, 240 ) 0.0, 1.0;
    ( no, no, no, 241 ) 0.0, 1.0;
    ( no, no, no, 242 ) 0.0, 1.0;
    ( no, no, no, 243 ) 0.0, 1.0;
    ( no, no, no, 244 ) 0.0, 1.0;
    ( no, no, no, 245 ) 0.0, 1.0;
    ( no, no, no, 246 ) 0.0, 1.0;
    ( no, no, no, 247 ) 0.0, 1.0;
    ( no, no, no, 248 ) 0.0, 1.0;
    ( no, no, no, 249 ) 0.0, 1.0;
    ( no, no, no, 250 ) 0.0, 1.0;
    ( no, no, no, 251 ) 0.0, 1.0;
    ( no, no, no, 252 ) 0.0, 1.0;
    ( no, no, no, 253 ) 0.0, 1.0;
    ( no, no, no, 254 ) 0.0, 1.0;
    ( no, no, no, 255 ) 0.0, 1.0;
    ( no, no, yes, 0 ) 1.0, 0.0;
    ( no, no, yes, 1 ) 1.0, 0.0;
    ( no, no, yes, 2 ) 1.0, 0.0;
    ( no, no, yes, 3 ) 1.0, 0.0;
    ( no, no, yes, 4 ) 1.0, 0.0;
    ( no, no, yes, 5 ) 1.0, 0.0;
    ( no, no, yes, 6 ) 1.0, 0.0;
    ( no, no, yes, 7 ) 1.0, 0.0;
    ( no, no, yes, 8 ) 1.0, 0.0;
    ( no, no, yes, 9 ) 1.0, 0.0;
    ( no, no, yes, 10 ) 1.0, 0.0;
    ( no, no, yes, 11 ) 1.0, 0.0;
    ( no, no, yes, 12 ) 1.0, 0.0;
    ( no, no, yes, 13 ) 1.0, 0.0;
    ( no, no, yes, 14 ) 1.0, 0.0;
    ( no, no, yes, 15 ) 1.0, 0.0;
    ( no, no, yes, 16 ) 1.0, 0.0;
    ( no, no, yes, 17 ) 1.0, 0.0;
    ( no, no, yes, 18 ) 1.0, 0.0;
    ( no, no, yes, 19 ) 1.0, 0.0;
    ( no, no, yes, 20 ) 1.0, 0.0;
    ( no, no, yes, 21 ) 1.0, 0.0;
    ( no, no, yes, 22 ) 1.0, 0.0;
    ( no, no, yes, 23 ) 1.0, 0.0;
    ( no, no, yes, 24 ) 1.0, 0.0;
    ( no, no, yes, 25 ) 1.0, 0.0;
    ( no, no, yes, 26 ) 1.0, 0.0;
    ( no, no, yes, 27 ) 1.0, 0.0;
    ( no, no, yes, 28 ) 1.0, 0.0;
    ( no, no, yes, 29 ) 1.0, 0.0;
    ( no, no, yes, 30 ) 1.0, 0.0;
    ( no, no, yes, 31 ) 1.0, 0.0;
    ( no, no, yes, 32 ) 1.0, 0.0;
    ( no, no, yes, 33 ) 1.0, 0.0;
    ( no, no, yes, 34 ) 1.0, 0.0;
    ( no, no, yes, 35 ) 1.0, 0.0;
    ( no, no, yes, 36 ) 1.0, 0.0;
    ( no, no, yes, 37 ) 1.0, 0.0;
    ( no, no, yes, 38 ) 1.0, 0.0;
    ( no, no, yes, 39 ) 1.0, 0.0;
    ( no, no, yes, 40 ) 1.0, 0.0;
    ( no, no, yes, 41 ) 1.0, 0.0;
    ( no, no, yes, 42 ) 1.0, 0.0;
    ( no, no, yes, 43 ) 1.0, 0.0;
    ( no, no, yes, 44 ) 1.0, 0.0;
    ( no, no, yes, 45 ) 1.0, 0.0;
    ( no, no, yes, 46 ) 1.0, 0.0;
    ( no, no, yes, 47 ) 1.0, 0.0;
    ( no, no, yes, 48 ) 1.0, 0.0;
    ( no, no, yes, 49 ) 1.0, 0.0;
    ( no, no, yes, 50 ) 1.0, 0.0;
    ( no, no, yes, 51 ) 1.0, 0.0;
    ( no, no, yes, 52 ) 1.0, 0.0;
    ( no, no, yes, 53 ) 1.0, 0.0;
    ( no, no, yes, 54 ) 1.0, 0.0;
    ( no, no, yes, 55 ) 1.0, 0.0;
    ( no, no, yes, 56 ) 1.0, 0.0;
    ( no, no, yes, 57 ) 1.0, 0.0;
    ( no, no, yes, 58 ) 1.0, 0.0;
    ( no, no, yes, 59 ) 1.0, 0.0;
    ( no, no, yes, 60 ) 1.0, 0.0;
    ( no, no, yes, 61 ) 1.0, 0.0;
    ( no, no, yes, 62 ) 1.0, 0.0;
    ( no, no, yes, 63 ) 1.0, 0.0;
    ( no, no, yes, 64 ) 0.0, 1.0;
    ( no, no, yes, 65 ) 0.0, 1.0;
    ( no, no, yes, 66 ) 0.0, 1.0;
    ( no, no, yes, 67 ) 0.0, 1.0;
    ( no, no, yes, 68 ) 0.0, 1.0;
    ( no, no, yes, 69 ) 0.0, 1.0;
    ( no, no, yes, 70 ) 0.0, 1.0;
    ( no, no, yes, 71 ) 0.0, 1.0;
    ( no, no, yes, 72 ) 0.0, 1.0;
    ( no, no, yes, 73 ) 0.0, 1.0;
    ( no, no, yes, 74 ) 0.0, 1.0;
    ( no, no, yes, 75 ) 0.0, 1.0;
    ( no, no, yes, 76 ) 0.0, 1.0;
    ( no, no, yes, 77 ) 0.0, 1.0;
    ( no, no, yes, 78 ) 0.0, 1.0;
    ( no, no, yes, 79 ) 0.0, 1.0;
    ( no, no, yes, 80 ) 0.0, 1.0;
    ( no, no, yes, 81 ) 0.0, 1.0;
    ( no, no, yes, 82 ) 0.0, 1.0;
    ( no, no, yes, 83 ) 0.0, 1.0;
    ( no, no, yes, 84 ) 0.0, 1.0;
    ( no, no, yes, 85 ) 0.0, 1.0;
    ( no, no, yes, 86 ) 0.0, 1.0;
    ( no, no, yes, 87 ) 0.0, 1.0;
    ( no, no, yes, 88 ) 0.0, 1.0;
    ( no, no, yes, 89 ) 0.0, 1.0;
    ( no, no, yes, 90 ) 0.0, 1.0;
    ( no, no, yes, 91 ) 0.0, 1.0;
    ( no, no, yes, 92 ) 0.0, 1.0;
    ( no, no, yes, 93 ) 0.0, 1.0;
    ( no, no, yes, 94 ) 0.0, 1.0;
    ( no, no, yes, 95 ) 0.0, 1.0;
    ( no, no, yes, 96 ) 0.0, 1.0;
    ( no, no, yes, 97 ) 0.0, 1.0;
    ( no, no, yes, 98 ) 0.0, 1.0;
    ( no, no, yes, 99 ) 0.0, 1.0;
    ( no, no, yes, 100 ) 0.0, 1.0;
    ( no, no, yes, 101 ) 0.0, 1.0;
    ( no, no, yes, 102 ) 0.0, 1.0;
    ( no, no, yes, 103 ) 0.0, 1.0;
    ( no, no, yes, 104 ) 0.0, 1.0;
    ( no, no, yes, 105 ) 0.0, 1.0;
    ( no, no, yes, 106 ) 0.0, 1.0;
    ( no, no, yes, 107 ) 0.0, 1.0;
    ( no, no, yes, 108 ) 0.0, 1.0;
    ( no, no, yes, 109 ) 0.0, 1.0;
    ( no, no, yes, 110 ) 0.0, 1.0;
    ( no, no, yes, 111 ) 0.0, 1.0;
    ( no, no, yes, 112 ) 0.0, 1.0;
    ( no, no, yes, 113 ) 0.0, 1.0;
    ( no, no, yes, 114 ) 0.0, 1.0;
    ( no, no, yes, 115 ) 0.0, 1.0;
    ( no, no, yes, 116 ) 0.0, 1.0;
    ( no, no, yes, 117 ) 0.0, 1.0;
    ( no, no, yes, 118 ) 0.0, 1.0;
    ( no, no, yes, 119 ) 0.0, 1.0;
    ( no, no, yes, 120 ) 0.0, 1.0;
    ( no, no, yes, 121 ) 0.0, 1.0;
    ( no, no, yes, 122 ) 0.0, 1.0;
    ( no, no, yes, 123 ) 0.0, 1.0;
    ( no, no, yes, 124 ) 0.0, 1.0;
    ( no, no, yes, 125 ) 0.0, 1.0;
    ( no, no, yes, 126 ) 0.0, 1.0;
    ( no, no, yes, 127 ) 0.0, 1.0;
    ( no, no, yes, 128 ) 1.0, 0.0;
    ( no, no, yes, 129 ) 1.0, 0.0;
    ( no, no, yes, 130 ) 1.0, 0.0;
    ( no, no, yes, 131 ) 1.0, 0.0;
    ( no, no, yes, 132 ) 1.0, 0.0;
    ( no, no, yes, 133 ) 1.0, 0.0;
    ( no, no, yes, 134 ) 1.0, 0.0;
    ( no, no, yes, 135 ) 1.0, 0.0;
    ( no, no, yes, 136 ) 1.0, 0.0;
    ( no, no, yes, 137 ) 1.0, 0.0;
    ( no, no, yes, 138 ) 1.0, 0.0;
    ( no, no, yes, 139 ) 1.0, 0.0;
    ( no, no, yes, 140 ) 1.0, 0.0;
    ( no, no, yes, 141 ) 1.0, 0.0;
    ( no, no, yes, 142 ) 1.0, 0.0;
    ( no, no, yes, 143 ) 1.0, 0.0;
    ( no, no, yes, 144 ) 1.0, 0.0;
    ( no, no, yes, 145 ) 1.0, 0.0;
    ( no, no, yes, 146 ) 1.0, 0.0;
    ( no, no, yes, 147 ) 1.0, 0.0;
    ( no, no, yes, 148 ) 1.0, 0.0;
    ( no, no, yes, 149 ) 1.0, 0.0;
    ( no, no, yes, 150 ) 1.0, 0.0;
    ( no, no, yes, 151 ) 1.0, 0.0;
    ( no, no, yes, 152 ) 1.0, 0.0;
    ( no, no, yes, 153 ) 1.0, 0.0;
    ( no, no, yes, 154 ) 1.0, 0.0;
    ( no, no, yes, 155 ) 1.0, 0.0;
    ( no, no, yes, 156 ) 1.0, 0.0;
    ( no, no, yes, 157 ) 1.0, 0.0;
    ( no, no, yes, 158 ) 1.0, 0.0;
    ( no, no, yes, 159 ) 1.0, 0.0;
    ( no, no, yes, 160 ) 1.0, 0.0;
    ( no, no, yes, 161 ) 1.0, 0.0;
    ( no, no, yes, 162 ) 1.0, 0.0;
    ( no, no, yes, 163 ) 1.0, 0.0;
    ( no, no, yes, 164 ) 1.0, 0.0;
    ( no, no, yes, 165 ) 1.0, 0.0;
    ( no, no, yes, 166 ) 1.0, 0.0;
    ( no, no, yes, 167 ) 1.0, 0.0;
    ( no, no, yes, 168 ) 1.0, 0.0;
    ( no, no, yes, 169 ) 1.0, 0.0;
    ( no, no, yes, 170 ) 1.0, 0.0;
    ( no, no, yes, 171 ) 1.0, 0.0;
    ( no, no, yes, 172 ) 1.0, 0.0;
    ( no, no, yes, 173 ) 1.0, 0.0;
    ( no, no, yes, 174 ) 1.0, 0.0;
    ( no, no, yes, 175 ) 1.0, 0.0;
    ( no, no, yes, 176 ) 1.0, 0.0;
    ( no, no, yes, 177 ) 1.0, 0.0;
    ( no, no, yes, 178 ) 1.0, 0.0;
    ( no, no, yes, 179 ) 1.0, 0.0;
    ( no, no, yes, 180 ) 1.0, 0.0;
    ( no, no, yes, 181 ) 1.0, 0.0;
    ( no, no, yes, 182 ) 1.0, 0.0;
    ( no, no, yes, 183 ) 1.0, 0.0;
    ( no, no, yes, 184 ) 1.0, 0.0;
    ( no, no, yes, 185 ) 1.0, 0.0;
    ( no, no, yes, 186 ) 1.0, 0.0;
    ( no, no, yes, 187 ) 1.0, 0.0;
    ( no, no, yes, 188 ) 1.0, 0.0;
    ( no, no, yes, 189 ) 1.0, 0.0;
    ( no, no, yes, 190 ) 1.0, 0.0;
    ( no, no, yes, 191 ) 1.0, 0.0;
    ( no, no, yes, 192 ) 0.0, 1.0;
    ( no, no, yes, 193 ) 0.0, 1.0;
    ( no, no, yes, 194 ) 0.0, 1.0;
    ( no, no, yes, 195 ) 0.0, 1.0;
    ( no, no, yes, 196 ) 0.0, 1.0;
    ( no, no, yes, 197 ) 0.0, 1.0;
    ( no, no, yes, 198 ) 0.0, 1.0;
    ( no, no, yes, 199 ) 0.0, 1.0;
    ( no, no, yes, 200 ) 0.0, 1.0;
    ( no, no, yes, 201 ) 0.0, 1.0;
    ( no, no, yes, 202 ) 0.0, 1.0;
    ( no, no, yes, 203 ) 0.0, 1.0;
    ( no, no, yes, 204 ) 0.0, 1.0;
    ( no, no, yes, 205 ) 0.0, 1.0;
    ( no, no, yes, 206 ) 0.0, 1.0;
    ( no, no, yes, 207 ) 0.0, 1.0;
    ( no, no, yes, 208 ) 0.0, 1.0;
    ( no, no, yes, 209 ) 0.0, 1.0;
    ( no, no, yes, 210 ) 0.0, 1.0;
    ( no, no, yes, 211 ) 0.0, 1.0;
    ( no, no, yes, 212 ) 0.0, 1.0;
    ( no, no, yes, 213 ) 0.0, 1.0;
    ( no, no, yes, 214 ) 0.0, 1.0;
    ( no, no, yes, 215 ) 0.0, 1.0;
    ( no, no, yes, 216 ) 0.0, 1.0;
    ( no, no, yes, 217 ) 0.0, 1.0;
    ( no, no, yes, 218 ) 0.0, 1.0;
    ( no, no, yes, 219 ) 0.0, 1.0;
    ( no, no, yes, 220 ) 0.0, 1.0;
    ( no, no, yes, 221 ) 0.0, 1.0;
    ( no, no, yes, 222 ) 0.0, 1.0;
    ( no, no, yes, 223 ) 0.0, 1.0;
    ( no, no, yes, 224 ) 0.0, 1.0;
    ( no, no, yes, 225 ) 0.0, 1.0;
    ( no, no, yes, 226 ) 0.0, 1.0;
    ( no, no, yes, 227 ) 0.0, 1.0;
    ( no, no, yes, 228 ) 0.0, 1.0;
    ( no, no, yes, 229 ) 0.0, 1.0;
    ( no, no, yes, 230 ) 0.0, 1.0;
    ( no, no, yes, 231 ) 0.0, 1.0;
    ( no, no, yes, 232 ) 0.0, 1.0;
    ( no, no, yes, 233 ) 0.0, 1.0;
    ( no, no, yes, 234 ) 0.0, 1.0;
    ( no, no, yes, 235 ) 0.0, 1.0;
    ( no, no, yes, 236 ) 0.0, 1.0;
    ( no, no, yes, 237 ) 0.0, 1.0;
    ( no, no, yes, 238 ) 0.0, 1.0;
    ( no, no, yes, 239 ) 0.0, 1.0;
    ( no, no, yes, 240 ) 0.0, 1.0;
    ( no, no, yes, 241 ) 0.0, 1.0;
    ( no, no, yes, 242 ) 0.0, 1.0;
    ( no, no, yes, 243 ) 0.0, 1.0;
    ( no, no, yes, 244 ) 0.0, 1.0;
    ( no, no, yes, 245 ) 0.0, 1.0;
    ( no, no, yes, 246 ) 0.0, 1.0;
    ( no, no, yes, 247 ) 0.0, 1.0;
    ( no, no, yes, 248 ) 0.0, 1.0;
    ( no, no, yes, 249 ) 0.0, 1.0;
    ( no, no, yes, 250 ) 0.0, 1.0;
    ( no, no, yes, 251 ) 0.0, 1.0;
    ( no, no, yes, 252 ) 0.0, 1.0;
    ( no, no, yes, 253 ) 0.0, 1.0;
    ( no, no, yes, 254 ) 0.0, 1.0;
    ( no, no, yes, 255 ) 0.0, 1.0;
    ( no, yes, no, 0 ) 1.0, 0.0;
    ( no, yes, no, 1 ) 1.0, 0.0;
    ( no, yes, no, 2 ) 1.0, 0.0;
    ( no, yes, no, 3 ) 1.0, 0.0;
    ( no, yes, no, 4 ) 1.0, 0.0;
    ( no, yes, no, 5 ) 1.0, 0.0;
    ( no, yes, no, 6 ) 1.0, 0.0;
    ( no, yes, no, 7 ) 1.0, 0.0;
    ( no, yes, no, 8 ) 1.0, 0.0;
    ( no, yes, no, 9 ) 1.0, 0.0;
    ( no, yes, no, 10 ) 1.0, 0.0;
    ( no, yes, no, 11 ) 1.0, 0.0;
    ( no, yes, no, 12 ) 1.0, 0.0;
    ( no, yes, no, 13 ) 1.0, 0.0;
    ( no, yes, no, 14 ) 1.0, 0.0;
    ( no, yes, no, 15 ) 1.0, 0.0;
    ( no, yes, no, 16 ) 1.0, 0.0;
    ( no, yes, no, 17 ) 1.0, 0.0;
    ( no, yes, no, 18 ) 1.0, 0.0;
    ( no, yes, no, 19 ) 1.0, 0.0;
    ( no, yes, no, 20 ) 1.0, 0.0;
    ( no, yes, no, 21 ) 1.0, 0.0;
    ( no, yes, no, 22 ) 1.0, 0.0;
    ( no, yes, no, 23 ) 1.0, 0.0;
    ( no, yes, no, 24 ) 1.0, 0.0;
    ( no, yes, no, 25 ) 1.0, 0.0;
    ( no, yes, no, 26 ) 1.0, 0.0;
    ( no, yes, no, 27 ) 1.0, 0.0;
    ( no, yes, no, 28 ) 1.0, 0.0;
    ( no, yes, no, 29 ) 1.0, 0.0;
    ( no, yes, no, 30 ) 1.0, 0.0;
    ( no, yes, no, 31 ) 1.0, 0.0;
    ( no, yes, no, 32 ) 0.0, 1.0;
    ( no, yes, no, 33 ) 0.0, 1.0;
    ( no, yes, no, 34 ) 0.0, 1.0;
    ( no, yes, no, 35 ) 0.0, 1.0;
    ( no, yes, no, 36 ) 0.0, 1.0;
    ( no, yes, no, 37 ) 0.0, 1.0;
    ( no, yes, no, 38 ) 0.0, 1.0;
    ( no, yes, no, 39 ) 0.0, 1.0;
    ( no, yes, no, 40 ) 0.0, 1.0;
    ( no, yes, no, 41 ) 0.0, 1.0;
    ( no, yes, no, 42 ) 0.0, 1.0;
    ( no, yes, no, 43 ) 0.0, 1.0;
    ( no, yes, no, 44 ) 0.0, 1.0;
    ( no, yes, no, 45 ) 0.0, 1.0;
    ( no, yes, no, 46 ) 0.0, 1.0;
    ( no, yes, no, 47 ) 0.0, 1.0;
    ( no, yes, no, 48 ) 0.0, 1.0;
    ( no, yes, no, 49 ) 0.0, 1.0;
    ( no, yes, no, 50 ) 0.0, 1.0;
    ( no, yes, no, 51 ) 0.0, 1.0;
    ( no, yes, no, 52 ) 0.0, 1.0;
    ( no, yes, no, 53 ) 0.0, 1.0;
    ( no, yes, no, 54 ) 0.0, 1.0;
    ( no, yes, no, 55 ) 0.0, 1.0;
    ( no, yes, no, 56 ) 0.0, 1.0;
    ( no, yes, no, 57 ) 0.0, 1.0;
    ( no, yes, no, 58 ) 0.0, 1.0;
    ( no, yes, no, 59 ) 0.0, 1.0;
    ( no, yes, no, 60 ) 0.0, 1.0;
    ( no, yes, no, 61 ) 0.0, 1.0;
    ( no, yes, no, 62 ) 0.0, 1.0;
    ( no, yes, no, 63 ) 0.0, 1.0;
    ( no, yes, no, 64 ) 1.0, 0.0;
    ( no, yes, no, 65 ) 1.0, 0.0;
    ( no, yes, no, 66 ) 1.0, 0.0;
    ( no, yes, no, 67 ) 1.0, 0.0;
    ( no, yes, no, 68 ) 1.0, 0.0;
    ( no, yes, no, 69 ) 1.0, 0.0;
    ( no, yes, no, 70 ) 1.0, 0.0;
    ( no, yes, no, 71 ) 1.0, 0.0;
    ( no, yes, no, 72 ) 1.0, 0.0;
    ( no, yes, no, 73 ) 1.0, 0.0;
    ( no, yes, no, 74 ) 1.0, 0.0;
    ( no, yes, no, 75 ) 1.0, 0.0;
    ( no, yes, no, 76 ) 1.0, 0.0;
    ( no, yes, no, 77 ) 1.0, 0.0;
    ( no, yes, no, 78 ) 1.0, 0.0;
    ( no, yes, no, 79 ) 1.0, 0.0;
    ( no, yes, no, 80 ) 1.0, 0.0;
    ( no, yes, no, 81 ) 1.0, 0.0;
    ( no, yes, no, 82 ) 1.0, 0.0;
    ( no, yes, no, 83 ) 1.0, 0.0;
    ( no, yes, no, 84 ) 1.0, 0.0;
    ( no, yes, no, 85 ) 1.0, 0.0;
    ( no, yes, no, 86 ) 1.0, 0.0;
    ( no, yes, no, 87 ) 1.0, 0.0;
    ( no, yes, no, 88 ) 1.0, 0.0;
    ( no, yes, no, 89 ) 1.0, 0.0;
    ( no, yes, no, 90 ) 1.0, 0.0;
    ( no, yes, no, 91 ) 1.0, 0.0;
    ( no, yes, no, 92 ) 1.0, 0.0;
    ( no, yes, no, 93 ) 1.0, 0.0;
    ( no, yes, no, 94 ) 1.0, 0.0;
    ( no, yes, no, 95 ) 1.0, 0.0;
    ( no, yes, no, 96 ) 0.0, 1.0;
    ( no, yes, no, 97 ) 0.0, 1.0;
    ( no, yes, no, 98 ) 0.0, 1.0;
    ( no, yes, no, 99 ) 0.0, 1.0;
    ( no, yes, no, 100 ) 0.0, 1.0;
    ( no, yes, no, 101 ) 0.0, 1.0;
    ( no, yes, no, 102 ) 0.0, 1.0;
    ( no, yes, no, 103 ) 0.0, 1.0;
    ( no, yes, no, 104 ) 0.0, 1.0;
    ( no, yes, no, 105 ) 0.0, 1.0;
    ( no, yes, no, 106 ) 0.0, 1.0;
    ( no, yes, no, 107 ) 0.0, 1.0;
    ( no, yes, no, 108 ) 0.0, 1.0;
    ( no, yes, no, 109 ) 0.0, 1.0;
    ( no, yes, no, 110 ) 0.0, 1.0;
    ( no, yes, no, 111 ) 0.0, 1.0;
    ( no, yes, no, 112 ) 0.0, 1.0;
    ( no, yes, no, 113 ) 0.0, 1.0;
    ( no, yes, no, 114 ) 0.0, 1.0;
    ( no, yes, no, 115 ) 0.0, 1.0;
    ( no, yes, no, 116 ) 0.0, 1.0;
    ( no, yes, no, 117 ) 0.0, 1.0;
    ( no, yes, no, 118 ) 0.0, 1.0;
    ( no, yes, no, 119 ) 0.0, 1.0;
    ( no, yes, no, 120 ) 0.0, 1.0;
    ( no, yes, no, 121 ) 0.0, 1.0;
    ( no, yes, no, 122 ) 0.0, 1.0;
    ( no, yes, no, 123 ) 0.0, 1.0;
    ( no, yes, no, 124 ) 0.0, 1.0;
    ( no, yes, no, 125 ) 0.0, 1.0;
    ( no, yes, no, 126 ) 0.0, 1.0;
    ( no, yes, no, 127 ) 0.0, 1.0;
    ( no, yes, no, 128 ) 1.0, 0.0;
    ( no, yes, no, 129 ) 1.0, 0.0;
    ( no, yes, no, 130 ) 1.0, 0.0;
    ( no, yes, no, 131 ) 1.0, 0.0;
    ( no, yes, no, 132 ) 1.0, 0.0;
    ( no, yes, no, 133 ) 1.0, 0.0;
    ( no, yes, no, 134 ) 1.0, 0.0;
    ( no, yes, no, 135 ) 1.0, 0.0;
    ( no, yes, no, 136 ) 1.0, 0.0;
    ( no, yes, no, 137 ) 1.0, 0.0;
    ( no, yes, no, 138 ) 1.0, 0.0;
    ( no, yes, no, 139 ) 1.0, 0.0;
    ( no, yes, no, 140 ) 1.0, 0.0;
    ( no, yes, no, 141 ) 1.0, 0.0;
    ( no, yes, no, 142 ) 1.0, 0.0;
    ( no, yes, no, 143 ) 1.0, 0.0;
    ( no, yes, no, 144 ) 1.0, 0.0;
    ( no, yes, no, 145 ) 1.0, 0.0;
    ( no, yes, no, 146 ) 1.0, 0.0;
    ( no, yes, no, 147 ) 1.0, 0.0;
    ( no, yes, no, 148 ) 1.0, 0.0;
    ( no, yes, no, 149 ) 1.0, 0.0;
    ( no, yes, no, 150 ) 1.0, 0.0;
    ( no, yes, no, 151 ) 1.0, 0.0;
    ( no, yes, no, 152 ) 1.0, 0.0;
    ( no, yes, no, 153 ) 1.0, 0.0;
    ( no, yes, no, 154 ) 1.0, 0.0;
    ( no, yes, no, 155 ) 1.0, 0.0;
    ( no, yes, no, 156 ) 1.0, 0.0;
    ( no, yes, no, 157 ) 1.0, 0.0;
    ( no, yes, no, 158 ) 1.0, 0.0;
    ( no, yes, no, 159 ) 1.0, 0.0;
    ( no, yes, no, 160 ) 0.0, 1.0;
    ( no, yes, no, 161 ) 0.0, 1.0;
    ( no, yes, no, 162 ) 0.0, 1.0;
    ( no, yes, no, 163 ) 0.0, 1.0;
    ( no, yes, no, 164 ) 0.0, 1.0;
    ( no, yes, no, 165 ) 0.0, 1.0;
    ( no, yes, no, 166 ) 0.0, 1.0;
    ( no, yes, no, 167 ) 0.0, 1.0;
    ( no, yes, no, 168 ) 0.0, 1.0;
    ( no, yes, no, 169 ) 0.0, 1.0;
    ( no, yes, no, 170 ) 0.0, 1.0;
    ( no, yes, no, 171 ) 0.0, 1.0;
    ( no, yes, no, 172 ) 0.0, 1.0;
    ( no, yes, no, 173 ) 0.0, 1.0;
    ( no, yes, no, 174 ) 0.0, 1.0;
    ( no, yes, no, 175 ) 0.0, 1.0;
    ( no, yes, no, 176 ) 0.0, 1.0;
    ( no, yes, no, 177 ) 0.0, 1.0;
    ( no, yes, no, 178 ) 0.0, 1.0;
    ( no, yes, no, 179 ) 0.0, 1.0;
    ( no, yes, no, 180 ) 0.0, 1.0;
    ( no, yes, no, 181 ) 0.0, 1.0;
    ( no, yes, no, 182 ) 0.0, 1.0;
    ( no, yes, no, 183 ) 0.0, 1.0;
    ( no, yes, no, 184 ) 0.0, 1.0;
    ( no, yes, no, 185 ) 0.0, 1.0;
    ( no, yes, no, 186 ) 0.0, 1.0;
    ( no, yes, no, 187 ) 0.0, 1.0;
    ( no, yes, no, 188 ) 0.0, 1.0;
    ( no, yes, no, 189 ) 0.0, 1.0;
    ( no, yes, no, 190 ) 0.0, 1.0;
    ( no, yes, no, 191 ) 0.0, 1.0;
    ( no, yes, no, 192 ) 1.0, 0.0;
    ( no, yes, no, 193 ) 1.0, 0.0;
    ( no, yes, no, 194 ) 1.0, 0.0;
    ( no, yes, no, 195 ) 1.0, 0.0;
    ( no, yes, no, 196 ) 1.0, 0.0;
    ( no, yes, no, 197 ) 1.0, 0.0;
    ( no, yes, no, 198 ) 1.0, 0.0;
    ( no, yes, no, 199 ) 1.0, 0.0;
    ( no, yes, no, 200 ) 1.0, 0.0;
    ( no, yes, no, 201 ) 1.0, 0.0;
    ( no, yes, no, 202 ) 1.0, 0.0;
    ( no, yes, no, 203 ) 1.0, 0.0;
    ( no, yes, no, 204 ) 1.0, 0.0;
    ( no, yes, no, 205 ) 1.0, 0.0;
    ( no, yes, no, 206 ) 1.0, 0.0;
    ( no, yes, no, 207 ) 1.0, 0.0;
    ( no, yes, no, 208 ) 1.0, 0.0;
    ( no, yes, no, 209 ) 1.0, 0.0;
    ( no, yes, no, 210 ) 1.0, 0.0;
    ( no, yes, no, 211 ) 1.0, 0.0;
    ( no, yes, no, 212 ) 1.0, 0.0;
    ( no, yes, no, 213 ) 1.0, 0.0;
    ( no, yes, no, 214 ) 1.0, 0.0;
    ( no, yes, no, 215 ) 1.0, 0.0;
    ( no, yes, no, 216 ) 1.0, 0.0;
    ( no, yes, no, 217 ) 1.0, 0.0;
    ( no, yes, no, 218 ) 1.0, 0.0;
    ( no, yes, no, 219 ) 1.0, 0.0;
    ( no, yes, no, 220 ) 1.0, 0.0;
    ( no, yes, no, 221 ) 1.0, 0.0;
    ( no, yes, no, 222 ) 1.0, 0.0;
    ( no, yes, no, 223 ) 1.0, 0.0;
    ( no, yes, no, 224 ) 0.0, 1.0;
    ( no, yes, no, 225 ) 0.0, 1.0;
    ( no, yes, no, 226 ) 0.0, 1.0;
    ( no, yes, no, 227 ) 0.0, 1.0;
    ( no, yes, no, 228 ) 0.0, 1.0;
    ( no, yes, no, 229 ) 0.0, 1.0;
    ( no, yes, no, 230 ) 0.0, 1.0;
    ( no, yes, no, 231 ) 0.0, 1.0;
    ( no, yes, no, 232 ) 0.0, 1.0;
    ( no, yes, no, 233 ) 0.0, 1.0;
    ( no, yes, no, 234 ) 0.0, 1.0;
    ( no, yes, no, 235 ) 0.0, 1.0;
    ( no, yes, no, 236 ) 0.0, 1.0;
    ( no, yes, no, 237 ) 0.0, 1.0;
    ( no, yes, no, 238 ) 0.0, 1.0;
    ( no, yes, no, 239 ) 0.0, 1.0;
    ( no, yes, no, 240 ) 0.0, 1.0;
    ( no, yes, no, 241 ) 0.0, 1.0;
    ( no, yes, no, 242 ) 0.0, 1.0;
    ( no, yes, no, 243 ) 0.0, 1.0;
    ( no, yes, no, 244 ) 0.0, 1.0;
    ( no, yes, no, 245 ) 0.0, 1.0;
    ( no, yes, no, 246 ) 0.0, 1.0;
    ( no, yes, no, 247 ) 0.0, 1.0;
    ( no, yes, no, 248 ) 0.0, 1.0;
    ( no, yes, no, 249 ) 0.0, 1.0;
    ( no, yes, no, 250 ) 0.0, 1.0;
    ( no, yes, no, 251 ) 0.0, 1.0;
    ( no, yes, no, 252 ) 0.0, 1.0;
    ( no, yes, no, 253 ) 0.0, 1.0;
    ( no, yes, no, 254 ) 0.0, 1.0;
    ( no, yes, no, 255 ) 0.0, 1.0;
    ( no, yes, yes, 0 ) 1.0, 0.0;
    ( no, yes, yes, 1 ) 1.0, 0.0;
    ( no, yes, yes, 2 ) 1.0, 0.0;
    ( no, yes, yes, 3 ) 1.0, 0.0;
    ( no, yes, yes, 4 ) 1.0, 0.0;
    ( no, yes, yes, 5 ) 1.0, 0.0;
    ( no, yes, yes, 6 ) 1.0, 0.0;
    ( no, yes, yes, 7 ) 1.0, 0.0;
    ( no, yes, yes, 8 ) 1.0, 0.0;
    ( no, yes, yes, 9 ) 1.0, 0.0;
    ( no, yes, yes, 10 ) 1.0, 0.0;
    ( no, yes, yes, 11 ) 1.0, 0.0;
    ( no, yes, yes, 12 ) 1.0, 0.0;
    ( no, yes, yes, 13 ) 1.0, 0.0;
    ( no, yes, yes, 14 ) 1.0, 0.0;
    ( no, yes, yes, 15 ) 1.0, 0.0;
    ( no, yes, yes, 16 ) 0.0, 1.0;
    ( no, yes, yes, 17 ) 0.0, 1.0;
    ( no, yes, yes, 18 ) 0.0, 1.0;
    ( no, yes, yes, 19 ) 0.0, 1.0;
    ( no, yes, yes, 20 ) 0.0, 1.0;
    ( no, yes, yes, 21 ) 0.0, 1.0;
    ( no, yes, yes, 22 ) 0.0, 1.0;
    ( no, yes, yes, 23 ) 0.0, 1.0;
    ( no, yes, yes, 24 ) 0.0, 1.0;
    ( no, yes, yes, 25 ) 0.0, 1.0;
    ( no, yes, yes, 26 ) 0.0, 1.0;
    ( no, yes, yes, 27 ) 0.0, 1.0;
    ( no, yes, yes, 28 ) 0.0, 1.0;
    ( no, yes, yes, 29 ) 0.0, 1.0;
    ( no, yes, yes, 30 ) 0.0, 1.0;
    ( no, yes, yes, 31 ) 0.0, 1.0;
    ( no, yes, yes, 32 ) 1.0, 0.0;
    ( no, yes, yes, 33 ) 1.0, 0.0;
    ( no, yes, yes, 34 ) 1.0, 0.0;
    ( no, yes, yes, 35 ) 1.0, 0.0;
    ( no, yes, yes, 36 ) 1.0, 0.0;
    ( no, yes, yes, 37 ) 1.0, 0.0;
    ( no, yes, yes, 38 ) 1.0, 0.0;
    ( no, yes, yes, 39 ) 1.0, 0.0;
    ( no, yes, yes, 40 ) 1.0, 0.0;
    ( no, yes, yes, 41 ) 1.0, 0.0;
    ( no, yes, yes, 42 ) 1.0, 0.0;
    ( no, yes, yes, 43 ) 1.0, 0.0;
    ( no, yes, yes, 44 ) 1.0, 0.0;
    ( no, yes, yes, 45 ) 1.0, 0.0;
    ( no, yes, yes, 46 ) 1.0, 0.0;
    ( no, yes, yes, 47 ) 1.0, 0.0;
    ( no, yes, yes, 48 ) 0.0, 1.0;
    ( no, yes, yes, 49 ) 0.0, 1.0;
    ( no, yes, yes, 50 ) 0.0, 1.0;
    ( no, yes, yes, 51 ) 0.0, 1.0;
    ( no, yes, yes, 52 ) 0.0, 1.0;
    ( no, yes, yes, 53 ) 0.0, 1.0;
    ( no, yes, yes, 54 ) 0.0, 1.0;
    ( no, yes, yes, 55 ) 0.0, 1.0;
    ( no, yes, yes, 56 ) 0.0, 1.0;
    ( no, yes, yes, 57 ) 0.0, 1.0;
    ( no, yes, yes, 58 ) 0.0, 1.0;
    ( no, yes, yes, 59 ) 0.0, 1.0;
    ( no, yes, yes, 60 ) 0.0, 1.0;
    ( no, yes, yes, 61 ) 0.0, 1.0;
    ( no, yes, yes, 62 ) 0.0, 1.0;
    ( no, yes, yes, 63 ) 0.0, 1.0;
    ( no, yes, yes, 64 ) 1.0, 0.0;
    ( no, yes, yes, 65 ) 1.0, 0.0;
    ( no, yes, yes, 66 ) 1.0, 0.0;
    ( no, yes, yes, 67 ) 1.0, 0.0;
    ( no, yes, yes, 68 ) 1.0, 0.0;
    ( no, yes, yes, 69 ) 1.0, 0.0;
    ( no, yes, yes, 70 ) 1.0, 0.0;
    ( no, yes, yes, 71 ) 1.0, 0.0;
    ( no, yes, yes, 72 ) 1.0, 0.0;
    ( no, yes, yes, 73 ) 1.0, 0.0;
    ( no, yes, yes, 74 ) 1.0, 0.0;
    ( no, yes, yes, 75 ) 1.0, 0.0;
    ( no, yes, yes, 76 ) 1.0, 0.0;
    ( no, yes, yes, 77 ) 1.0, 0.0;
    ( no, yes, yes, 78 ) 1.0, 0.0;
    ( no, yes, yes, 79 ) 1.0, 0.0;
    ( no, yes, yes, 80 ) 0.0, 1.0;
    ( no, yes, yes, 81 ) 0.0, 1.0;
    ( no, yes, yes, 82 ) 0.0, 1.0;
    ( no, yes, yes, 83 ) 0.0, 1.0;
    ( no, yes, yes, 84 ) 0.0, 1.0;
    ( no, yes, yes, 85 ) 0.0, 1.0;
    ( no, yes, yes, 86 ) 0.0, 1.0;
    ( no, yes, yes, 87 ) 0.0, 1.0;
    ( no, yes, yes, 88 ) 0.0, 1.0;
    ( no, yes, yes, 89 ) 0.0, 1.0;
    ( no, yes, yes, 90 ) 0.0, 1.0;
    ( no, yes, yes, 91 ) 0.0, 1.0;
    ( no, yes, yes, 92 ) 0.0, 1.0;
    ( no, yes, yes, 93 ) 0.0, 1.0;
    ( no, yes, yes, 94 ) 0.0, 1.0;
    ( no, yes, yes, 95 ) 0.0, 1.0;
    ( no, yes, yes, 96 ) 1.0, 0.0;
    ( no, yes, yes, 97 ) 1.0, 0.0;
    ( no, yes, yes, 98 ) 1.0, 0.0;
    ( no, yes, yes, 99 ) 1.0, 0.0;
    ( no, yes, yes, 100 ) 1.0, 0.0;
    ( no, yes, yes, 101 ) 1.0, 0.0;
    ( no, yes, yes, 102 ) 1.0, 0.0;
    ( no, yes, yes, 103 ) 1.0, 0.0;
    ( no, yes, yes, 104 ) 1.0, 0.0;
    ( no, yes, yes, 105 ) 1.0, 0.0;
    ( no, yes, yes, 106 ) 1.0, 0.0;
    ( no, yes, yes, 107 ) 1.0, 0.0;
    ( no, yes, yes, 108 ) 1.0, 0.0;
    ( no, yes, yes, 109 ) 1.0, 0.0;
    ( no, yes, yes, 110 ) 1.0, 0.0;
    ( no, yes, yes, 111 ) 1.0, 0.0;
    ( no, yes, yes, 112 ) 0.0, 1.0;
    ( no, yes, yes, 113 ) 0.0, 1.0;
    ( no, yes, yes, 114 ) 0.0, 1.0;
    ( no, yes, yes, 115 ) 0.0, 1.0;
    ( no, yes, yes, 116 ) 0.0, 1.0;
    ( no, yes, yes, 117 ) 0.0, 1.0;
    ( no, yes, yes, 118 ) 0.0, 1.0;
    ( no, yes, yes, 119 ) 0.0, 1.0;
    ( no, yes, yes, 120 ) 0.0, 1.0;
    ( no, yes, yes, 121 ) 0.0, 1.0;
    ( no, yes, yes, 122 ) 0.0, 1.0;
    ( no, yes, yes, 123 ) 0.0, 1.0;
    ( no, yes, yes, 124 ) 0.0, 1.0;
    ( no, yes, yes, 125 ) 0.0, 1.0;
    ( no, yes, yes, 126 ) 0.0, 1.0;
    ( no, yes, yes, 127 ) 0.0, 1.0;
    ( no, yes, yes, 128 ) 1.0, 0.0;
    ( no, yes, yes, 129 ) 1.0, 0.0;
    ( no, yes, yes, 130 ) 1.0, 0.0;
    ( no, yes, yes, 131 ) 1.0, 0.0;
    ( no, yes, yes, 132 ) 1.0, 0.0;
    ( no, yes, yes, 133 ) 1.0, 0.0;
    ( no, yes, yes, 134 ) 1.0, 0.0;
    ( no, yes, yes, 135 ) 1.0, 0.0;
    ( no, yes, yes, 136 ) 1.0, 0.0;
    ( no, yes, yes, 137 ) 1.0, 0.0;
    ( no, yes, yes, 138 ) 1.0, 0.0;
    ( no, yes, yes, 139 ) 1.0, 0.0;
    ( no, yes, yes, 140 ) 1.0, 0.0;
    ( no, yes, yes, 141 ) 1.0, 0.0;
    ( no, yes, yes, 142 ) 1.0, 0.0;
    ( no, yes, yes, 143 ) 1.0, 0.0;
    ( no, yes, yes, 144 ) 0.0, 1.0;
    ( no, yes, yes, 145 ) 0.0, 1.0;
    ( no, yes, yes, 146 ) 0.0, 1.0;
    ( no, yes, yes, 147 ) 0.0, 1.0;
    ( no, yes, yes, 148 ) 0.0, 1.0;
    ( no, yes, yes, 149 ) 0.0, 1.0;
    ( no, yes, yes, 150 ) 0.0, 1.0;
    ( no, yes, yes, 151 ) 0.0, 1.0;
    ( no, yes, yes, 152 ) 0.0, 1.0;
    ( no, yes, yes, 153 ) 0.0, 1.0;
    ( no, yes, yes, 154 ) 0.0, 1.0;
    ( no, yes, yes, 155 ) 0.0, 1.0;
    ( no, yes, yes, 156 ) 0.0, 1.0;
    ( no, yes, yes, 157 ) 0.0, 1.0;
    ( no, yes, yes, 158 ) 0.0, 1.0;
    ( no, yes, yes, 159 ) 0.0, 1.0;
    ( no, yes, yes, 160 ) 1.0, 0.0;
    ( no, yes, yes, 161 ) 1.0, 0.0;
    ( no, yes, yes, 162 ) 1.0, 0.0;
    ( no, yes, yes, 163 ) 1.0, 0.0;
    ( no, yes, yes, 164 ) 1.0, 0.0;
    ( no, yes, yes, 165 ) 1.0, 0.0;
    ( no, yes, yes, 166 ) 1.0, 0.0;
    ( no, yes, yes, 167 ) 1.0, 0.0;
    ( no, yes, yes, 168 ) 1.0, 0.0;
    ( no, yes, yes, 169 ) 1.0, 0.0;
    ( no, yes, yes, 170 ) 1.0, 0.0;
    ( no, yes, yes, 171 ) 1.0, 0.0;
    ( no, yes, yes, 172 ) 1.0, 0.0;
    ( no, yes, yes, 173 ) 1.0, 0.0;
    ( no, yes, yes, 174 ) 1.0, 0.0;
    ( no, yes, yes, 175 ) 1.0, 0.0;
    ( no, yes, yes, 176 ) 0.0, 1.0;
    ( no, yes, yes, 177 ) 0.0, 1.0;
    ( no, yes, yes, 178 ) 0.0, 1.0;
    ( no, yes, yes, 179 ) 0.0, 1.0;
    ( no, yes, yes, 180 ) 0.0, 1.0;
    ( no, yes, yes, 181 ) 0.0, 1.0;
    ( no, yes, yes, 182 ) 0.0, 1.0;
    ( no, yes, yes, 183 ) 0.0, 1.0;
    ( no, yes, yes, 184 ) 0.0, 1.0;
    ( no, yes, yes, 185 ) 0.0, 1.0;
    ( no, yes, yes, 186 ) 0.0, 1.0;
    ( no, yes, yes, 187 ) 0.0, 1.0;
    ( no, yes, yes, 188 ) 0.0, 1.0;
    ( no, yes, yes, 189 ) 0.0, 1.0;
    ( no, yes, yes, 190 ) 0.0, 1.0;
    ( no, yes, yes, 191 ) 0.0, 1.0;
    ( no, yes, yes, 192 ) 1.0, 0.0;
    ( no, yes, yes, 193 ) 1.0, 0.0;
    ( no, yes, yes, 194 ) 1.0, 0.0;
    ( no, yes, yes, 195 ) 1.0, 0.0;
    ( no, yes, yes, 196 ) 1.0, 0.0;
    ( no, yes, yes, 197 ) 1.0, 0.0;
    ( no, yes, yes, 198 ) 1.0, 0.0;
    ( no, yes, yes, 199 ) 1.0, 0.0;
    ( no, yes, yes, 200 ) 1.0, 0.0;
    ( no, yes, yes, 201 ) 1.0, 0.0;
    ( no, yes, yes, 202 ) 1.0, 0.0;
    ( no, yes, yes, 203 ) 1.0, 0.0;
    ( no, yes, yes, 204 ) 1.0, 0.0;
    ( no, yes, yes, 205 ) 1.0, 0.0;
    ( no, yes, yes, 206 ) 1.0, 0.0;
    ( no, yes, yes, 207 ) 1.0, 0.0;
    ( no, yes, yes, 208 ) 0.0, 1.0;
    ( no, yes, yes, 209 ) 0.0, 1.0;
    ( no, yes, yes, 210 ) 0.0, 1.0;
    ( no, yes, yes, 211 ) 0.0, 1.0;
    ( no, yes, yes, 212 ) 0.0, 1.0;
    ( no, yes, yes, 213 ) 0.0, 1.0;
    ( no, yes, yes, 214 ) 0.0, 1.0;
    ( no, yes, yes, 215 ) 0.0, 1.0;
    ( no, yes, yes, 216 ) 0.0, 1.0;
    ( no, yes, yes, 217 ) 0.0, 1.0;
    ( no, yes, yes, 218 ) 0.0, 1.0;
    ( no, yes, yes, 219 ) 0.0, 1.0;
    ( no, yes, yes, 220 ) 0.0, 1.0;
    ( no, yes, yes, 221 ) 0.0, 1.0;
    ( no, yes, yes, 222 ) 0.0, 1.0;
    ( no, yes, yes, 223 ) 0.0, 1.0;
    ( no, yes, yes, 224 ) 1.0, 0.0;
    ( no, yes, yes, 225 ) 1.0, 0.0;
    ( no, yes, yes, 226 ) 1.0, 0.0;
    ( no, yes, yes, 227 ) 1.0, 0.0;
    ( no, yes, yes, 228 ) 1.0, 0.0;
    ( no, yes, yes, 229 ) 1.0, 0.0;
    ( no, yes, yes, 230 ) 1.0, 0.0;
    ( no, yes, yes, 231 ) 1.0, 0.0;
    ( no, yes, yes, 232 ) 1.0, 0.0;
    ( no, yes, yes, 233 ) 1.0, 0.0;
    ( no, yes, yes, 234 ) 1.0, 0.0;
    ( no, yes, yes, 235 ) 1.0, 0.0;
    ( no, yes, yes, 236 ) 1.0, 0.0;
    ( no, yes, yes, 237 ) 1.0, 0.0;
    ( no, yes, yes, 238 ) 1.0, 0.0;
    ( no, yes, yes, 239 ) 1.0, 0.0;
    ( no, yes, yes, 240 ) 0.0, 1.0;
    ( no, yes, yes, 241 ) 0.0, 1.0;
    ( no, yes, yes, 242 ) 0.0, 1.0;
    ( no, yes, yes, 243 ) 0.0, 1.0;
    ( no, yes, yes, 244 ) 0.0, 1.0;
    ( no, yes, yes, 245 ) 0.0, 1.0;
    ( no, yes, yes, 246 ) 0.0, 1.0;
    ( no, yes, yes, 247 ) 0.0, 1.0;
    ( no, yes, yes, 248 ) 0.0, 1.0;
    ( no, yes, yes, 249 ) 0.0, 1.0;
    ( no, yes, yes, 250 ) 0.0, 1.0;
    ( no, yes, yes, 251 ) 0.0, 1.0;
    ( no, yes, yes, 252 ) 0.0, 1.0;
    ( no, yes, yes, 253 ) 0.0, 1.0;
    ( no, yes, yes, 254 ) 0.0, 1.0;
    ( no, yes, yes, 255 ) 0.0, 1.0;
    ( yes, no, no, 0 ) 1.0, 0.0;
    ( yes, no, no, 1 ) 1.0, 0.0;
    ( yes, no, no, 2 ) 1.0, 0.0;
    ( yes, no, no, 3 ) 1.0, 0.0;
    ( yes, no, no, 4 ) 1.0, 0.0;
    ( yes, no, no, 5 ) 1.0, 0.0;
    ( yes, no, no, 6 ) 1.0, 0.0;
    ( yes, no, no, 7 ) 1.0, 0.0;
    ( yes, no, no, 8 ) 0.0, 1.0;
    ( yes, no, no, 9 ) 0.0, 1.0;
    ( yes, no, no, 10 ) 0.0, 1.0;
    ( yes, no, no, 11 ) 0.0, 1.0;
    ( yes, no, no, 12 ) 0.0, 1.0;
    ( yes, no, no, 13 ) 0.0, 1.0;
    ( yes, no, no, 14 ) 0.0, 1.0;
    ( yes, no, no, 15 ) 0.0, 1.0;
    ( yes, no, no, 16 ) 1.0, 0.0;
    ( yes, no, no, 17 ) 1.0, 0.0;
    ( yes, no, no, 18 ) 1.0, 0.0;
    ( yes, no, no, 19 ) 1.0, 0.0;
    ( yes, no, no, 20 ) 1.0, 0.0;
    ( yes, no, no, 21 ) 1.0, 0.0;
    ( yes, no, no, 22 ) 1.0, 0.0;
    ( yes, no, no, 23 ) 1.0, 0.0;
    ( yes, no, no, 24 ) 0.0, 1.0;
    ( yes, no, no, 25 ) 0.0, 1.0;
    ( yes, no, no, 26 ) 0.0, 1.0;
    ( yes, no, no, 27 ) 0.0, 1.0;
    ( yes, no, no, 28 ) 0.0, 1.0;
    ( yes, no, no, 29 ) 0.0, 1.0;
    ( yes, no, no, 30 ) 0.0, 1.0;
    ( yes, no, no, 31 ) 0.0, 1.0;
    ( yes, no, no, 32 ) 1.0, 0.0;
    ( yes, no, no, 33 ) 1.0, 0.0;
    ( yes, no, no, 34 ) 1.0, 0.0;
    ( yes, no, no, 35 ) 1.0, 0.0;
    ( yes, no, no, 36 ) 1.0, 0.0;
    ( yes, no, no, 37 ) 1.0, 0.0;
    ( yes, no, no, 38 ) 1.0, 0.0;
    ( yes, no, no, 39 ) 1.0, 0.0;
    ( yes, no, no, 40 ) 0.0, 1.0;
    ( yes, no, no, 41 ) 0.0, 1.0;
    ( yes, no, no, 42 ) 0.0, 1.0;
    ( yes, no, no, 43 ) 0.0, 1.0;
    ( yes, no, no, 44 ) 0.0, 1.0;
    ( yes, no, no, 45 ) 0.0, 1.0;
    ( yes, no, no, 46 ) 0.0, 1.0;
    ( yes, no, no, 47 ) 0.0, 1.0;
    ( yes, no, no, 48 ) 1.0, 0.0;
    ( yes, no, no, 49 ) 1.0, 0.0;
    ( yes, no, no, 50 ) 1.0, 0.0;
    ( yes, no, no, 51 ) 1.0, 0.0;
    ( yes, no, no, 52 ) 1.0, 0.0;
    ( yes, no, no, 53 ) 1.0, 0.0;
    ( yes, no, no, 54 ) 1.0, 0.0;
    ( yes, no, no, 55 ) 1.0, 0.0;
    ( yes, no, no, 56 ) 0.0, 1.0;
    ( yes, no, no, 57 ) 0.0, 1.0;
    ( yes, no, no, 58 ) 0.0, 1.0;
    ( yes, no, no, 59 ) 0.0, 1.0;
    ( yes, no, no, 60 ) 0.0, 1.0;
    ( yes, no, no, 61 ) 0.0, 1.0;
    ( yes, no, no, 62 ) 0.0, 1.0;
    ( yes, no, no, 63 ) 0.0, 1.0;
    ( yes, no, no, 64 ) 1.0, 0.0;
    ( yes, no, no, 65 ) 1.0, 0.0;
    ( yes, no, no, 66 ) 1.0, 0.0;
    ( yes, no, no, 67 ) 1.0, 0.0;
    ( yes, no, no, 68 ) 1.0, 0.0;
    ( yes, no, no, 69 ) 1.0, 0.0;
    ( yes, no, no, 70 ) 1.0, 0.0;
    ( yes, no, no, 71 ) 1.0, 0.0;
    ( yes, no, no, 72 ) 0.0, 1.0;
    ( yes, no, no, 73 ) 0.0, 1.0;
    ( yes, no, no, 74 ) 0.0, 1.0;
    ( yes, no, no, 75 ) 0.0, 1.0;
    ( yes, no, no, 76 ) 0.0, 1.0;
    ( yes, no, no, 77 ) 0.0, 1.0;
    ( yes, no, no, 78 ) 0.0, 1.0;
    ( yes, no, no, 79 ) 0.0, 1.0;
    ( yes, no, no, 80 ) 1.0, 0.0;
    ( yes, no, no, 81 ) 1.0, 0.0;
    ( yes, no, no, 82 ) 1.0, 0.0;
    ( yes, no, no, 83 ) 1.0, 0.0;
    ( yes, no, no, 84 ) 1.0, 0.0;
    ( yes, no, no, 85 ) 1.0, 0.0;
    ( yes, no, no, 86 ) 1.0, 0.0;
    ( yes, no, no, 87 ) 1.0, 0.0;
    ( yes, no, no, 88 ) 0.0, 1.0;
    ( yes, no, no, 89 ) 0.0, 1.0;
    ( yes, no, no, 90 ) 0.0, 1.0;
    ( yes, no, no, 91 ) 0.0, 1.0;
    ( yes, no, no, 92 ) 0.0, 1.0;
    ( yes, no, no, 93 ) 0.0, 1.0;
    ( yes, no, no, 94 ) 0.0, 1.0;
    ( yes, no, no, 95 ) 0.0, 1.0;
    ( yes, no, no, 96 ) 1.0, 0.0;
    ( yes, no, no, 97 ) 1.0, 0.0;
    ( yes, no, no, 98 ) 1.0, 0.0;
    ( yes, no, no, 99 ) 1.0, 0.0;
    ( yes, no, no, 100 ) 1.0, 0.0;
    ( yes, no, no, 101 ) 1.0, 0.0;
    ( yes, no, no, 102 ) 1.0, 0.0;
    ( yes, no, no, 103 ) 1.0, 0.0;
    ( yes, no, no, 104 ) 0.0, 1.0;
    ( yes, no, no, 105 ) 0.0, 1.0;
    ( yes, no, no, 106 ) 0.0, 1.0;
    ( yes, no, no, 107 ) 0.0, 1.0;
    ( yes, no, no, 108 ) 0.0, 1.0;
    ( yes, no, no, 109 ) 0.0, 1.0;
    ( yes, no, no, 110 ) 0.0, 1.0;
    ( yes, no, no, 111 ) 0.0, 1.0;
    ( yes, no, no, 112 ) 1.0, 0.0;
    ( yes, no, no, 113 ) 1.0, 0.0;
    ( yes, no, no, 114 ) 1.0, 0.0;
    ( yes, no, no, 115 ) 1.0, 0.0;
    ( yes, no, no, 116 ) 1.0, 0.0;
    ( yes, no, no, 117 ) 1.0, 0.0;
    ( yes, no, no, 118 ) 1.0, 0.0;
    ( yes, no, no, 119 ) 1.0, 0.0;
    ( yes, no, no, 120 ) 0.0, 1.0;
    ( yes, no, no, 121 ) 0.0, 1.0;
    ( yes, no, no, 122 ) 0.0, 1.0;
    ( yes, no, no, 123 ) 0.0, 1.0;
    ( yes, no, no, 124 ) 0.0, 1.0;
    ( yes, no, no, 125 ) 0.0, 1.0;
    ( yes, no, no, 126 ) 0.0, 1.0;
    ( yes, no, no, 127 ) 0.0, 1.0;
    ( yes, no, no, 128 ) 1.0, 0.0;
    ( yes, no, no, 129 ) 1.0, 0.0;
    ( yes, no, no, 130 ) 1.0, 0.0;
    ( yes, no, no, 131 ) 1.0, 0.0;
    ( yes, no, no, 132 ) 1.0, 0.0;
    ( yes, no, no, 133 ) 1.0, 0.0;
    ( yes, no, no, 134 ) 1.0, 0.0;
    ( yes, no, no, 135 ) 1.0, 0.0;
    ( yes, no, no, 136 ) 0.0, 1.0;
    ( yes, no, no, 137 ) 0.0, 1.0;
    ( yes, no, no, 138 ) 0.0, 1.0;
    ( yes, no, no, 139 ) 0.0, 1.0;
    ( yes, no, no, 140 ) 0.0, 1.0;
    ( yes, no, no, 141 ) 0.0, 1.0;
    ( yes, no, no, 142 ) 0.0, 1.0;
    ( yes, no, no, 143 ) 0.0, 1.0;
    ( yes, no, no, 144 ) 1.0, 0.0;
    ( yes, no, no, 145 ) 1.0, 0.0;
    ( yes, no, no, 146 ) 1.0, 0.0;
    ( yes, no, no, 147 ) 1.0, 0.0;
    ( yes, no, no, 148 ) 1.0, 0.0;
    ( yes, no, no, 149 ) 1.0, 0.0;
    ( yes, no, no, 150 ) 1.0, 0.0;
    ( yes, no, no, 151 ) 1.0, 0.0;
    ( yes, no, no, 152 ) 0.0, 1.0;
    ( yes, no, no, 153 ) 0.0, 1.0;
    ( yes, no, no, 154 ) 0.0, 1.0;
    ( yes, no, no, 155 ) 0.0, 1.0;
    ( yes, no, no, 156 ) 0.0, 1.0;
    ( yes, no, no, 157 ) 0.0, 1.0;
    ( yes, no, no, 158 ) 0.0, 1.0;
    ( yes, no, no, 159 ) 0.0, 1.0;
    ( yes, no, no, 160 ) 1.0, 0.0;
    ( yes, no, no, 161 ) 1.0, 0.0;
    ( yes, no, no, 162 ) 1.0, 0.0;
    ( yes, no, no, 163 ) 1.0, 0.0;
    ( yes, no, no, 164 ) 1.0, 0.0;
    ( yes, no, no, 165 ) 1.0, 0.0;
    ( yes, no, no, 166 ) 1.0, 0.0;
    ( yes, no, no, 167 ) 1.0, 0.0;
    ( yes, no, no, 168 ) 0.0, 1.0;
    ( yes, no, no, 169 ) 0.0, 1.0;
    ( yes, no, no, 170 ) 0.0, 1.0;
    ( yes, no, no, 171 ) 0.0, 1.0;
    ( yes, no, no, 172 ) 0.0, 1.0;
    ( yes, no, no, 173 ) 0.0, 1.0;
    ( yes, no, no, 174 ) 0.0, 1.0;
    ( yes, no, no, 175 ) 0.0, 1.0;
    ( yes, no, no, 176 ) 1.0, 0.0;
    ( yes, no, no, 177 ) 1.0, 0.0;
    ( yes, no, no, 178 ) 1.0, 0.0;
    ( yes, no, no, 179 ) 1.0, 0.0;
    ( yes, no, no, 180 ) 1.0, 0.0;
    ( yes, no, no, 181 ) 1.0, 0.0;
    ( yes, no, no, 182 ) 1.0, 0.0;
    ( yes, no, no, 183 ) 1.0, 0.0;
    ( yes, no, no, 184 ) 0.0, 1.0;
    ( yes, no, no, 185 ) 0.0, 1.0;
    ( yes, no, no, 186 ) 0.0, 1.0;
    ( yes, no, no, 187 ) 0.0, 1.0;
    ( yes, no, no, 188 ) 0.0, 1.0;
    ( yes, no, no, 189 ) 0.0, 1.0;
    ( yes, no, no, 190 ) 0.0, 1.0;
    ( yes, no, no, 191 ) 0.0, 1.0;
    ( yes, no, no, 192 ) 1.0, 0.0;
    ( yes, no, no, 193 ) 1.0, 0.0;
    ( yes, no, no, 194 ) 1.0, 0.0;
    ( yes, no, no, 195 ) 1.0, 0.0;
    ( yes, no, no, 196 ) 1.0, 0.0;
    ( yes, no, no, 197 ) 1.0, 0.0;
    ( yes, no, no, 198 ) 1.0, 0.0;
    ( yes, no, no, 199 ) 1.0, 0.0;
    ( yes, no, no, 200 ) 0.0, 1.0;
    ( yes, no, no, 201 ) 0.0, 1.0;
    ( yes, no, no, 202 ) 0.0, 1.0;
    ( yes, no, no, 203 ) 0.0, 1.0;
    ( yes, no, no, 204 ) 0.0, 1.0;
    ( yes, no, no, 205 ) 0.0, 1.0;
    ( yes, no, no, 206 ) 0.0, 1.0;
    ( yes, no, no, 207 ) 0.0, 1.0;
    ( yes, no, no, 208 ) 1.0, 0.0;
    ( yes, no, no, 209 ) 1.0, 0.0;
    ( yes, no, no, 210 ) 1.0, 0.0;
    ( yes, no, no, 211 ) 1.0, 0.0;
    ( yes, no, no, 212 ) 1.0, 0.0;
    ( yes, no, no, 213 ) 1.0, 0.0;
    ( yes, no, no, 214 ) 1.0, 0.0;
    ( yes, no, no, 215 ) 1.0, 0.0;
    ( yes, no, no, 216 ) 0.0, 1.0;
    ( yes, no, no, 217 ) 0.0, 1.0;
    ( yes, no, no, 218 ) 0.0, 1.0;
    ( yes, no, no, 219 ) 0.0, 1.0;
    ( yes, no, no, 220 ) 0.0, 1.0;
    ( yes, no, no, 221 ) 0.0, 1.0;
    ( yes, no, no, 222 ) 0.0, 1.0;
    ( yes, no, no, 223 ) 0.0, 1.0;
    ( yes, no, no, 224 ) 1.0, 0.0;
    ( yes, no, no, 225 ) 1.0, 0.0;
    ( yes, no, no, 226 ) 1.0, 0.0;
    ( yes, no, no, 227 ) 1.0, 0.0;
    ( yes, no, no, 228 ) 1.0, 0.0;
    ( yes, no, no, 229 ) 1.0, 0.0;
    ( yes, no, no, 230 ) 1.0, 0.0;
    ( yes, no, no, 231 ) 1.0, 0.0;
    ( yes, no, no, 232 ) 0.0, 1.0;
    ( yes, no, no, 233 ) 0.0, 1.0;
    ( yes, no, no, 234 ) 0.0, 1.0;
    ( yes, no, no, 235 ) 0.0, 1.0;
    ( yes, no, no, 236 ) 0.0, 1.0;
    ( yes, no, no, 237 ) 0.0, 1.0;
    ( yes, no, no, 238 ) 0.0, 1.0;
    ( yes, no, no, 239 ) 0.0, 1.0;
    ( yes, no, no, 240 ) 1.0, 0.0;
    ( yes, no, no, 241 ) 1.0, 0.0;
    ( yes, no, no, 242 ) 1.0, 0.0;
    ( yes, no, no, 243 ) 1.0, 0.0;
    ( yes, no, no, 244 ) 1.0, 0.0;
    ( yes, no, no, 245 ) 1.0, 0.0;
    ( yes, no, no, 246 ) 1.0, 0.0;
    ( yes, no, no, 247 ) 1.0, 0.0;
    ( yes, no, no, 248 ) 0.0, 1.0;
    ( yes, no, no, 249 ) 0.0, 1.0;
    ( yes, no, no, 250 ) 0.0, 1.0;
    ( yes, no, no, 251 ) 0.0, 1.0;
    ( yes, no, no, 252 ) 0.0, 1.0;
    ( yes, no, no, 253 ) 0.0, 1.0;
    ( yes, no, no, 254 ) 0.0, 1.0;
    ( yes, no, no, 255 ) 0.0, 1.0;
    ( yes, no, yes, 0 ) 1.0, 0.0;
    ( yes, no, yes, 1 ) 1.0, 0.0;
    ( yes, no, yes, 2 ) 1.0, 0.0;
    ( yes, no, yes, 3 ) 1.0, 0.0;
    ( yes, no, yes, 4 ) 0.0, 1.0;
    ( yes, no, yes, 5 ) 0.0, 1.0;
    ( yes, no, yes, 6 ) 0.0, 1.0;
    ( yes, no, yes, 7 ) 0.0, 1.0;
    ( yes, no, yes, 8 ) 1.0, 0.0;
    ( yes, no, yes, 9 ) 1.0, 0.0;
    ( yes, no, yes, 10 ) 1.0, 0.0;
    ( yes, no, yes, 11 ) 1.0, 0.0;
    ( yes, no, yes, 12 ) 0.0, 1.0;
    ( yes, no, yes, 13 ) 0.0, 1.0;
    ( yes, no, yes, 14 ) 0.0, 1.0;
    ( yes, no, yes, 15 ) 0.0, 1.0;
    ( yes, no, yes, 16 ) 1.0, 0.0;
    ( yes, no, yes, 17 ) 1.0, 0.0;
    ( yes, no, yes, 18 ) 1.0, 0.0;
    ( yes, no, yes, 19 ) 1.0, 0.0;
    ( yes, no, yes, 20 ) 0.0, 1.0;
    ( yes, no, yes, 21 ) 0.0, 1.0;
    ( yes, no, yes, 22 ) 0.0, 1.0;
    ( yes, no, yes, 23 ) 0.0, 1.0;
    ( yes, no, yes, 24 ) 1.0, 0.0;
    ( yes, no, yes, 25 ) 1.0, 0.0;
    ( yes, no, yes, 26 ) 1.0, 0.0;
    ( yes, no, yes, 27 ) 1.0, 0.0;
    ( yes, no, yes, 28 ) 0.0, 1.0;
    ( yes, no, yes, 29 ) 0.0, 1.0;
    ( yes, no, yes, 30 ) 0.0, 1.0;
    ( yes, no, yes, 31 ) 0.0, 1.0;
    ( yes, no, yes, 32 ) 1.0, 0.0;
    ( yes, no, yes, 33 ) 1.0, 0.0;
    ( yes, no, yes, 34 ) 1.0, 0.0;
    ( yes, no, yes, 35 ) 1.0, 0.0;
    ( yes, no, yes, 36 ) 0.0, 1.0;
    ( yes, no, yes, 37 ) 0.0, 1.0;
    ( yes, no, yes, 38 ) 0.0, 1.0;
    ( yes, no, yes, 39 ) 0.0, 1.0;
    ( yes, no, yes, 40 ) 1.0, 0.0;
    ( yes, no, yes, 41 ) 1.0, 0.0;
    ( yes, no, yes, 42 ) 1.0, 0.0;
    ( yes, no, yes, 43 ) 1.0, 0.0;
    ( yes, no, yes, 44 ) 0.0, 1.0;
    ( yes, no, yes, 45 ) 0.0, 1.0;
    ( yes, no, yes, 46 ) 0.0, 1.0;
    ( yes, no, yes, 47 ) 0.0, 1.0;
    ( yes, no, yes, 48 ) 1.0, 0.0;
    ( yes, no, yes, 49 ) 1.0, 0.0;
    ( yes, no, yes, 50 ) 1.0, 0.0;
    ( yes, no, yes, 51 ) 1.0, 0.0;
    ( yes, no, yes, 52 ) 0.0, 1.0;
    ( yes, no, yes, 53 ) 0.0, 1.0;
    ( yes, no, yes, 54 ) 0.0, 1.0;
    ( yes, no, yes, 55 ) 0.0, 1.0;
    ( yes, no, yes, 56 ) 1.0, 0.0;
    ( yes, no, yes, 57 ) 1.0, 0.0;
    ( yes, no, yes, 58 ) 1.0, 0.0;
    ( yes, no, yes, 59 ) 1.0, 0.0;
    ( yes, no, yes, 60 ) 0.0, 1.0;
    ( yes, no, yes, 61 ) 0.0, 1.0;
    ( yes, no, yes, 62 ) 0.0, 1.0;
    ( yes, no, yes, 63 ) 0.0, 1.0;
    ( yes, no, yes, 64 ) 1.0, 0.0;
    ( yes, no, yes, 65 ) 1.0, 0.0;
    ( yes, no, yes, 66 ) 1.0, 0.0;
    ( yes, no, yes, 67 ) 1.0, 0.0;
    ( yes, no, yes, 68 ) 0.0, 1.0;
    ( yes, no, yes, 69 ) 0.0, 1.0;
    ( yes, no, yes, 70 ) 0.0, 1.0;
    ( yes, no, yes, 71 ) 0.0, 1.0;
    ( yes, no, yes, 72 ) 1.0, 0.0;
    ( yes, no, yes, 73 ) 1.0, 0.0;
    ( yes, no, yes, 74 ) 1.0, 0.0;
    ( yes, no, yes, 75 ) 1.0, 0.0;
    ( yes, no, yes, 76 ) 0.0, 1.0;
    ( yes, no, yes, 77 ) 0.0, 1.0;
    ( yes, no, yes, 78 ) 0.0, 1.0;
    ( yes, no, yes, 79 ) 0.0, 1.0;
    ( yes, no, yes, 80 ) 1.0, 0.0;
    ( yes, no, yes, 81 ) 1.0, 0.0;
    ( yes, no, yes, 82 ) 1.0, 0.0;
    ( yes, no, yes, 83 ) 1.0, 0.0;
    ( yes, no, yes, 84 ) 0.0, 1.0;
    ( yes, no, yes, 85 ) 0.0, 1.0;
    ( yes, no, yes, 86 ) 0.0, 1.0;
    ( yes, no, yes, 87 ) 0.0, 1.0;
    ( yes, no, yes, 88 ) 1.0, 0.0;
    ( yes, no, yes, 89 ) 1.0, 0.0;
    ( yes, no, yes, 90 ) 1.0, 0.0;
    ( yes, no, yes, 91 ) 1.0, 0.0;
    ( yes, no, yes, 92 ) 0.0, 1.0;
    ( yes, no, yes, 93 ) 0.0, 1.0;
    ( yes, no, yes, 94 ) 0.0, 1.0;
    ( yes, no, yes, 95 ) 0.0, 1.0;
    ( yes, no, yes, 96 ) 1.0, 0.0;
    ( yes, no, yes, 97 ) 1.0, 0.0;
    ( yes, no, yes, 98 ) 1.0, 0.0;
    ( yes, no, yes, 99 ) 1.0, 0.0;
    ( yes, no, yes, 100 ) 0.0, 1.0;
    ( yes, no, yes, 101 ) 0.0, 1.0;
    ( yes, no, yes, 102 ) 0.0, 1.0;
    ( yes, no, yes, 103 ) 0.0, 1.0;
    ( yes, no, yes, 104 ) 1.0, 0.0;
    ( yes, no, yes, 105 ) 1.0, 0.0;
    ( yes, no, yes, 106 ) 1.0, 0.0;
    ( yes, no, yes, 107 ) 1.0, 0.0;
    ( yes, no, yes, 108 ) 0.0, 1.0;
    ( yes, no, yes, 109 ) 0.0, 1.0;
    ( yes, no, yes, 110 ) 0.0, 1.0;
    ( yes, no, yes, 111 ) 0.0, 1.0;
    ( yes, no, yes, 112 ) 1.0, 0.0;
    ( yes, no, yes, 113 ) 1.0, 0.0;
    ( yes, no, yes, 114 ) 1.0, 0.0;
    ( yes, no, yes, 115 ) 1.0, 0.0;
    ( yes, no, yes, 116 ) 0.0, 1.0;
    ( yes, no, yes, 117 ) 0.0, 1.0;
    ( yes, no, yes, 118 ) 0.0, 1.0;
    ( yes, no, yes, 119 ) 0.0, 1.0;
    ( yes, no, yes, 120 ) 1.0, 0.0;
    ( yes, no, yes, 121 ) 1.0, 0.0;
    ( yes, no, yes, 122 ) 1.0, 0.0;
    ( yes, no, yes, 123 ) 1.0, 0.0;
    ( yes, no, yes, 124 ) 0.0, 1.0;
    ( yes, no, yes, 125 ) 0.0, 1.0;
    ( yes, no, yes, 126 ) 0.0, 1.0;
    ( yes, no, yes, 127 ) 0.0, 1.0;
    ( yes, no, yes, 128 ) 1.0, 0.0;
    ( yes, no, yes, 129 ) 1.0, 0.0;
    ( yes, no, yes, 130 ) 1.0, 0.0;
    ( yes, no, yes, 131 ) 1.0, 0.0;
    ( yes, no, yes, 132 ) 0.0, 1.0;
    ( yes, no, yes, 133 ) 0.0, 1.0;
    ( yes, no, yes, 134 ) 0.0, 1.0;
    ( yes, no, yes, 135 ) 0.0, 1.0;
    ( yes, no, yes, 136 ) 1.0, 0.0;
    ( yes, no, yes, 137 ) 1.0, 0.0;
    ( yes, no, yes, 138 ) 1.0, 0.0;
    ( yes, no, yes, 139 ) 1.0, 0.0;
    ( yes, no, yes, 140 ) 0.0, 1.0;
    ( yes, no, yes, 141 ) 0.0, 1.0;
    ( yes, no, yes, 142 ) 0.0, 1.0;
    ( yes, no, yes, 143 ) 0.0, 1.0;
    ( yes, no, yes, 144 ) 1.0, 0.0;
    ( yes, no, yes, 145 ) 1.0, 0.0;
    ( yes, no, yes, 146 ) 1.0, 0.0;
    ( yes, no, yes, 147 ) 1.0, 0.0;
    ( yes, no, yes, 148 ) 0.0, 1.0;
    ( yes, no, yes, 149 ) 0.0, 1.0;
    ( yes, no, yes, 150 ) 0.0, 1.0;
    ( yes, no, yes, 151 ) 0.0, 1.0;
    ( yes, no, yes, 152 ) 1.0, 0.0;
    ( yes, no, yes, 153 ) 1.0, 0.0;
    ( yes, no, yes, 154 ) 1.0, 0.0;
    ( yes, no, yes, 155 ) 1.0, 0.0;
    ( yes, no, yes, 156 ) 0.0, 1.0;
    ( yes, no, yes, 157 ) 0.0, 1.0;
    ( yes, no, yes, 158 ) 0.0, 1.0;
    ( yes, no, yes, 159 ) 0.0, 1.0;
    ( yes, no, yes, 160 ) 1.0, 0.0;
    ( yes, no, yes, 161 ) 1.0, 0.0;
    ( yes, no, yes, 162 ) 1.0, 0.0;
    ( yes, no, yes, 163 ) 1.0, 0.0;
    ( yes, no, yes, 164 ) 0.0, 1.0;
    ( yes, no, yes, 165 ) 0.0, 1.0;
    ( yes, no, yes, 166 ) 0.0, 1.0;
    ( yes, no, yes, 167 ) 0.0, 1.0;
    ( yes, no, yes, 168 ) 1.0, 0.0;
    ( yes, no, yes, 169 ) 1.0, 0.0;
    ( yes, no, yes, 170 ) 1.0, 0.0;
    ( yes, no, yes, 171 ) 1.0, 0.0;
    ( yes, no, yes, 172 ) 0.0, 1.0;
    ( yes, no, yes, 173 ) 0.0, 1.0;
    ( yes, no, yes, 174 ) 0.0, 1.0;
    ( yes, no, yes, 175 ) 0.0, 1.0;
    ( yes, no, yes, 176 ) 1.0, 0.0;
    ( yes, no, yes, 177 ) 1.0, 0.0;
    ( yes, no, yes, 178 ) 1.0, 0.0;
    ( yes, no, yes, 179 ) 1.0, 0.0;
    ( yes, no, yes, 180 ) 0.0, 1.0;
    ( yes, no, yes, 181 ) 0.0, 1.0;
    ( yes, no, yes, 182 ) 0.0, 1.0;
    ( yes, no, yes, 183 ) 0.0, 1.0;
    ( yes, no, yes, 184 ) 1.0, 0.0;
    ( yes, no, yes, 185 ) 1.0, 0.0;
    ( yes, no, yes, 186 ) 1.0, 0.0;
    ( yes, no, yes, 187 ) 1.0, 0.0;
    ( yes, no, yes, 188 ) 0.0, 1.0;
    ( yes, no, yes, 189 ) 0.0, 1.0;
    ( yes, no, yes, 190 ) 0.0, 1.0;
    ( yes, no, yes, 191 ) 0.0, 1.0;
    ( yes, no, yes, 192 ) 1.0, 0.0;
    ( yes, no, yes, 193 ) 1.0, 0.0;
    ( yes, no, yes, 194 ) 1.0, 0.0;
    ( yes, no, yes, 195 ) 1.0, 0.0;
    ( yes, no, yes, 196 ) 0.0, 1.0;
    ( yes, no, yes, 197 ) 0.0, 1.0;
    ( yes, no, yes, 198 ) 0.0, 1.0;
    ( yes, no, yes, 199 ) 0.0, 1.0;
    ( yes, no, yes, 200 ) 1.0, 0.0;
    ( yes, no, yes, 201 ) 1.0, 0.0;
    ( yes, no, yes, 202 ) 1.0, 0.0;
    ( yes, no, yes, 203 ) 1.0, 0.0;
    ( yes, no, yes, 204 ) 0.0, 1.0;
    ( yes, no, yes, 205 ) 0.0, 1.0;
    ( yes, no, yes, 206 ) 0.0, 1.0;
    ( yes, no, yes, 207 ) 0.0, 1.0;
    ( yes, no, yes, 208 ) 1.0, 0.0;
    ( yes, no, yes, 209 ) 1.0, 0.0;
    ( yes, no, yes, 210 ) 1.0, 0.0;
    ( yes, no, yes, 211 ) 1.0, 0.0;
    ( yes, no, yes, 212 ) 0.0, 1.0;
    ( yes, no, yes, 213 ) 0.0, 1.0;
    ( yes, no, yes, 214 ) 0.0, 1.0;
    ( yes, no, yes, 215 ) 0.0, 1.0;
    ( yes, no, yes, 216 ) 1.0, 0.0;
    ( yes, no, yes, 217 ) 1.0, 0.0;
    ( yes, no, yes, 218 ) 1.0, 0.0;
    ( yes, no, yes, 219 ) 1.0, 0.0;
    ( yes, no, yes, 220 ) 0.0, 1.0;
    ( yes, no, yes, 221 ) 0.0, 1.0;
    ( yes, no, yes, 222 ) 0.0, 1.0;
    ( yes, no, yes, 223 ) 0.0, 1.0;
    ( yes, no, yes, 224 ) 1.0, 0.0;
    ( yes, no, yes, 225 ) 1.0, 0.0;
    ( yes, no, yes, 226 ) 1.0, 0.0;
    ( yes, no, yes, 227 ) 1.0, 0.0;
    ( yes, no, yes, 228 ) 0.0, 1.0;
    ( yes, no, yes, 229 ) 0.0, 1.0;
    ( yes, no, yes, 230 ) 0.0, 1.0;
    ( yes, no, yes, 231 ) 0.0, 1.0;
    ( yes, no, yes, 232 ) 1.0, 0.0;
    ( yes, no, yes, 233 ) 1.0, 0.0;
    ( yes, no, yes, 234 ) 1.0, 0.0;
    ( yes, no, yes, 235 ) 1.0, 0.0;
    ( yes, no, yes, 236 ) 0.0, 1.0;
    ( yes, no, yes, 237 ) 0.0, 1.0;
    ( yes, no, yes, 238 ) 0.0, 1.0;
    ( yes, no, yes, 239 ) 0.0, 1.0;
    ( yes, no, yes, 240 ) 1.0, 0.0;
    ( yes, no, yes, 241 ) 1.0, 0.0;
    ( yes, no, yes, 242 ) 1.0, 0.0;
    ( yes, no, yes, 243 ) 1.0, 0.0;
    ( yes, no, yes, 244 ) 0.0, 1.0;
    ( yes, no, yes, 245 ) 0.0, 1.0;
    ( yes, no, yes, 246 ) 0.0, 1.0;
    ( yes, no, yes, 247 ) 0.0, 1.0;
    ( yes, no, yes, 248 ) 1.0, 0.0;
    ( yes, no, yes, 249 ) 1.0, 0.0;
    ( yes, no, yes, 250 ) 1.0, 0.0;
    ( yes, no, yes, 251 ) 1.0, 0.0;
    ( yes, no, yes, 252 ) 0.0, 1.0;
    ( yes, no, yes, 253 ) 0.0, 1.0;
    ( yes, no, yes, 254 ) 0.0, 1.0;
    ( yes, no, yes, 255 ) 0.0, 1.0;
    ( yes, yes, no, 0 ) 1.0, 0.0;
    ( yes, yes, no, 1 ) 1.0, 0.0;
    ( yes, yes, no, 2 ) 0.0, 1.0;
    ( yes, yes, no, 3 ) 0.0, 1.0;
    ( yes, yes, no, 4 ) 1.0, 0.0;
    ( yes, yes, no, 5 ) 1.0, 0.0;
    ( yes, yes, no, 6 ) 0.0, 1.0;
    ( yes, yes, no, 7 ) 0.0, 1.0;
    ( yes, yes, no, 8 ) 1.0, 0.0;
    ( yes, yes, no, 9 ) 1.0, 0.0;
    ( yes, yes, no, 10 ) 0.0, 1.0;
    ( yes, yes, no, 11 ) 0.0, 1.0;
    ( yes, yes, no, 12 ) 1.0, 0.0;
    ( yes, yes, no, 13 ) 1.0, 0.0;
    ( yes, yes, no, 14 ) 0.0, 1.0;
    ( yes, yes, no, 15 ) 0.0, 1.0;
    ( yes, yes, no, 16 ) 1.0, 0.0;
    ( yes, yes, no, 17 ) 1.0, 0.0;
    ( yes, yes, no, 18 ) 0.0, 1.0;
    ( yes, yes, no, 19 ) 0.0, 1.0;
    ( yes, yes, no, 20 ) 1.0, 0.0;
    ( yes, yes, no, 21 ) 1.0, 0.0;
    ( yes, yes, no, 22 ) 0.0, 1.0;
    ( yes, yes, no, 23 ) 0.0, 1.0;
    ( yes, yes, no, 24 ) 1.0, 0.0;
    ( yes, yes, no, 25 ) 1.0, 0.0;
    ( yes, yes, no, 26 ) 0.0, 1.0;
    ( yes, yes, no, 27 ) 0.0, 1.0;
    ( yes, yes, no, 28 ) 1.0, 0.0;
    ( yes, yes, no, 29 ) 1.0, 0.0;
    ( yes, yes, no, 30 ) 0.0, 1.0;
    ( yes, yes, no, 31 ) 0.0, 1.0;
    ( yes, yes, no, 32 ) 1.0, 0.0;
    ( yes, yes, no, 33 ) 1.0, 0.0;
    ( yes, yes, no, 34 ) 0.0, 1.0;
    ( yes, yes, no, 35 ) 0.0, 1.0;
    ( yes, yes, no, 36 ) 1.0, 0.0;
    ( yes, yes, no, 37 ) 1.0, 0.0;
    ( yes, yes, no, 38 ) 0.0, 1.0;
    ( yes, yes, no, 39 ) 0.0, 1.0;
    ( yes, yes, no, 40 ) 1.0, 0.0;
    ( yes, yes, no, 41 ) 1.0, 0.0;
    ( yes, yes, no, 42 ) 0.0, 1.0;
    ( yes, yes, no, 43 ) 0.0, 1.0;
    ( yes, yes, no, 44 ) 1.0, 0.0;
    ( yes, yes, no, 45 ) 1.0, 0.0;
    ( yes, yes, no, 46 ) 0.0, 1.0;
    ( yes, yes, no, 47 ) 0.0, 1.0;
    ( yes, yes, no, 48 ) 1.0, 0.0;
    ( yes, yes, no, 49 ) 1.0, 0.0;
    ( yes, yes, no, 50 ) 0.0, 1.0;
    ( yes, yes, no, 51 ) 0.0, 1.0;
    ( yes, yes, no, 52 ) 1.0, 0.0;
    ( yes, yes, no, 53 ) 1.0, 0.0;
    ( yes, yes, no, 54 ) 0.0, 1.0;
    ( yes, yes, no, 55 ) 0.0, 1.0;
    ( yes, yes, no, 56 ) 1.0, 0.0;
    ( yes, yes, no, 57 ) 1.0, 0.0;
    ( yes, yes, no, 58 ) 0.0, 1.0;
    ( yes, yes, no, 59 ) 0.0, 1.0;
    ( yes, yes, no, 60 ) 1.0, 0.0;
    ( yes, yes, no, 61 ) 1.0, 0.0;
    ( yes, yes, no, 62 ) 0.0, 1.0;
    ( yes, yes, no, 63 ) 0.0, 1.0;
    ( yes, yes, no, 64 ) 1.0, 0.0;
    ( yes, yes, no, 65 ) 1.0, 0.0;
    ( yes, yes, no, 66 ) 0.0, 1.0;
    ( yes, yes, no, 67 ) 0.0, 1.0;
    ( yes, yes, no, 68 ) 1.0, 0.0;
    ( yes, yes, no, 69 ) 1.0, 0.0;
    ( yes, yes, no, 70 ) 0.0, 1.0;
    ( yes, yes, no, 71 ) 0.0, 1.0;
    ( yes, yes, no, 72 ) 1.0, 0.0;
    ( yes, yes, no, 73 ) 1.0, 0.0;
    ( yes, yes, no, 74 ) 0.0, 1.0;
    ( yes, yes, no, 75 ) 0.0, 1.0;
    ( yes, yes, no, 76 ) 1.0, 0.0;
    ( yes, yes, no, 77 ) 1.0, 0.0;
    ( yes, yes, no, 78 ) 0.0, 1.0;
    ( yes, yes, no, 79 ) 0.0, 1.0;
    ( yes, yes, no, 80 ) 1.0, 0.0;
    ( yes, yes, no, 81 ) 1.0, 0.0;
    ( yes, yes, no, 82 ) 0.0, 1.0;
    ( yes, yes, no, 83 ) 0.0, 1.0;
    ( yes, yes, no, 84 ) 1.0, 0.0;
    ( yes, yes, no, 85 ) 1.0, 0.0;
    ( yes, yes, no, 86 ) 0.0, 1.0;
    ( yes, yes, no, 87 ) 0.0, 1.0;
    ( yes, yes, no, 88 ) 1.0, 0.0;
    ( yes, yes, no, 89 ) 1.0, 0.0;
    ( yes, yes, no, 90 ) 0.0, 1.0;
    ( yes, yes, no, 91 ) 0.0, 1.0;
    ( yes, yes, no, 92 ) 1.0, 0.0;
    ( yes, yes, no, 93 ) 1.0, 0.0;
    ( yes, yes, no, 94 ) 0.0, 1.0;
    ( yes, yes, no, 95 ) 0.0, 1.0;
    ( yes, yes, no, 96 ) 1.0, 0.0;
    ( yes, yes, no, 97 ) 1.0, 0.0;
    ( yes, yes, no, 98 ) 0.0, 1.0;
    ( yes, yes, no, 99 ) 0.0, 1.0;
    ( yes, yes, no, 100 ) 1.0, 0.0;
    ( yes, yes, no, 101 ) 1.0, 0.0;
    ( yes, yes, no, 102 ) 0.0, 1.0;
    ( yes, yes, no, 103 ) 0.0, 1.0;
    ( yes, yes, no, 104 ) 1.0, 0.0;
    ( yes, yes, no, 105 ) 1.0, 0.0;
    ( yes, yes, no, 106 ) 0.0, 1.0;
    ( yes, yes, no, 107 ) 0.0, 1.0;
    ( yes, yes, no, 108 ) 1.0, 0.0;
    ( yes, yes, no, 109 ) 1.0, 0.0;
    ( yes, yes, no, 110 ) 0.0, 1.0;
    ( yes, yes, no, 111 ) 0.0, 1.0;
    ( yes, yes, no, 112 ) 1.0, 0.0;
    ( yes, yes, no, 113 ) 1.0, 0.0;
    ( yes, yes, no, 114 ) 0.0, 1.0;
    ( yes, yes, no, 115 ) 0.0, 1.0;
    ( yes, yes, no, 116 ) 1.0, 0.0;
    ( yes, yes, no, 117 ) 1.0, 0.0;
    ( yes, yes, no, 118 ) 0.0, 1.0;
    ( yes, yes, no, 119 ) 0.0, 1.0;
    ( yes, yes, no, 120 ) 1.0, 0.0;
    ( yes, yes, no, 121 ) 1.0, 0.0;
    ( yes, yes, no, 122 ) 0.0, 1.0;
    ( yes, yes, no, 123 ) 0.0, 1.0;
    ( yes, yes, no, 124 ) 1.0, 0.0;
    ( yes, yes, no, 125 ) 1.0, 0.0;
    ( yes, yes, no, 126 ) 0.0, 1.0;
    ( yes, yes, no, 127 ) 0.0, 1.0;
    ( yes, yes, no, 128 ) 1.0, 0.0;
    ( yes, yes, no, 129 ) 1.0, 0.0;
    ( yes, yes, no, 130 ) 0.0, 1.0;
    ( yes, yes, no, 131 ) 0.0, 1.0;
    ( yes, yes, no, 132 ) 1.0, 0.0;
    ( yes, yes, no, 133 ) 1.0, 0.0;
    ( yes, yes, no, 134 ) 0.0, 1.0;
    ( yes, yes, no, 135 ) 0.0, 1.0;
    ( yes, yes, no, 136 ) 1.0, 0.0;
    ( yes, yes, no, 137 ) 1.0, 0.0;
    ( yes, yes, no, 138 ) 0.0, 1.0;
    ( yes, yes, no, 139 ) 0.0, 1.0;
    ( yes, yes, no, 140 ) 1.0, 0.0;
    ( yes, yes, no, 141 ) 1.0, 0.0;
    ( yes, yes, no, 142 ) 0.0, 1.0;
    ( yes, yes, no, 143 ) 0.0, 1.0;
    ( yes, yes, no, 144 ) 1.0, 0.0;
    ( yes, yes, no, 145 ) 1.0, 0.0;
    ( yes, yes, no, 146 ) 0.0, 1.0;
    ( yes, yes, no, 147 ) 0.0, 1.0;
    ( yes, yes, no, 148 ) 1.0, 0.0;
    ( yes, yes, no, 149 ) 1.0, 0.0;
    ( yes, yes, no, 150 ) 0.0, 1.0;
    ( yes, yes, no, 151 ) 0.0, 1.0;
    ( yes, yes, no, 152 ) 1.0, 0.0;
    ( yes, yes, no, 153 ) 1.0, 0.0;
    ( yes, yes, no, 154 ) 0.0, 1.0;
    ( yes, yes, no, 155 ) 0.0, 1.0;
    ( yes, yes, no, 156 ) 1.0, 0.0;
    ( yes, yes, no, 157 ) 1.0, 0.0;
    ( yes, yes, no, 158 ) 0.0, 1.0;
    ( yes, yes, no, 159 ) 0.0, 1.0;
    ( yes, yes, no, 160 ) 1.0, 0.0;
    ( yes, yes, no, 161 ) 1.0, 0.0;
    ( yes, yes, no, 162 ) 0.0, 1.0;
    ( yes, yes, no, 163 ) 0.0, 1.0;
    ( yes, yes, no, 164 ) 1.0, 0.0;
    ( yes, yes, no, 165 ) 1.0, 0.0;
    ( yes, yes, no, 166 ) 0.0, 1.0;
    ( yes, yes, no, 167 ) 0.0, 1.0;
    ( yes, yes, no, 168 ) 1.0, 0.0;
    ( yes, yes, no, 169 ) 1.0, 0.0;
    ( yes, yes, no, 170 ) 0.0, 1.0;
    ( yes, yes, no, 171 ) 0.0, 1.0;
    ( yes, yes, no, 172 ) 1.0, 0.0;
    ( yes, yes, no, 173 ) 1.0, 0.0;
    ( yes, yes, no, 174 ) 0.0, 1.0;
    ( yes, yes, no, 175 ) 0.0, 1.0;
    ( yes, yes, no, 176 ) 1.0, 0.0;
    ( yes, yes, no, 177 ) 1.0, 0.0;
    ( yes, yes, no, 178 ) 0.0, 1.0;
    ( yes, yes, no, 179 ) 0.0, 1.0;
    ( yes, yes, no, 180 ) 1.0, 0.0;
    ( yes, yes, no, 181 ) 1.0, 0.0;
    ( yes, yes, no, 182 ) 0.0, 1.0;
    ( yes, yes, no, 183 ) 0.0, 1.0;
    ( yes, yes, no, 184 ) 1.0, 0.0;
    ( yes, yes, no, 185 ) 1.0, 0.0;
    ( yes, yes, no, 186 ) 0.0, 1.0;
    ( yes, yes, no, 187 ) 0.0, 1.0;
    ( yes, yes, no, 188 ) 1.0, 0.0;
    ( yes, yes, no, 189 ) 1.0, 0.0;
    ( yes, yes, no, 190 ) 0.0, 1.0;
    ( yes, yes, no, 191 ) 0.0, 1.0;
    ( yes, yes, no, 192 ) 1.0, 0.0;
    ( yes, yes, no, 193 ) 1.0, 0.0;
    ( yes, yes, no, 194 ) 0.0, 1.0;
    ( yes, yes, no, 195 ) 0.0, 1.0;
    ( yes, yes, no, 196 ) 1.0, 0.0;
    ( yes, yes, no, 197 ) 1.0, 0.0;
    ( yes, yes, no, 198 ) 0.0, 1.0;
    ( yes, yes, no, 199 ) 0.0, 1.0;
    ( yes, yes, no, 200 ) 1.0, 0.0;
    ( yes, yes, no, 201 ) 1.0, 0.0;
    ( yes, yes, no, 202 ) 0.0, 1.0;
    ( yes, yes, no, 203 ) 0.0, 1.0;
    ( yes, yes, no, 204 ) 1.0, 0.0;
    ( yes, yes, no, 205 ) 1.0, 0.0;
    ( yes, yes, no, 206 ) 0.0, 1.0;
    ( yes, yes, no, 207 ) 0.0, 1.0;
    ( yes, yes, no, 208 ) 1.0, 0.0;
    ( yes, yes, no, 209 ) 1.0, 0.0;
    ( yes, yes, no, 210 ) 0.0, 1.0;
    ( yes, yes, no, 211 ) 0.0, 1.0;
    ( yes, yes, no, 212 ) 1.0, 0.0;
    ( yes, yes, no, 213 ) 1.0, 0.0;
    ( yes, yes, no, 214 ) 0.0, 1.0;
    ( yes, yes, no, 215 ) 0.0, 1.0;
    ( yes, yes, no, 216 ) 1.0, 0.0;
    ( yes, yes, no, 217 ) 1.0, 0.0;
    ( yes, yes, no, 218 ) 0.0, 1.0;
    ( yes, yes, no, 219 ) 0.0, 1.0;
    ( yes, yes, no, 220 ) 1.0, 0.0;
    ( yes, yes, no, 221 ) 1.0, 0.0;
    ( yes, yes, no, 222 ) 0.0, 1.0;
    ( yes, yes, no, 223 ) 0.0, 1.0;
    ( yes, yes, no, 224 ) 1.0, 0.0;
    ( yes, yes, no, 225 ) 1.0, 0.0;
    ( yes, yes, no, 226 ) 0.0, 1.0;
    ( yes, yes, no, 227 ) 0.0, 1.0;
    ( yes, yes, no, 228 ) 1.0, 0.0;
    ( yes, yes, no, 229 ) 1.0, 0.0;
    ( yes, yes, no, 230 ) 0.0, 1.0;
    ( yes, yes, no, 231 ) 0.0, 1.0;
    ( yes, yes, no, 232 ) 1.0, 0.0;
    ( yes, yes, no, 233 ) 1.0, 0.0;
    ( yes, yes, no, 234 ) 0.0, 1.0;
    ( yes, yes, no, 235 ) 0.0, 1.0;
    ( yes, yes, no, 236 ) 1.0, 0.0;
    ( yes, yes, no, 237 ) 1.0, 0.0;
    ( yes, yes, no, 238 ) 0.0, 1.0;
    ( yes, yes, no, 239 ) 0.0, 1.0;
    ( yes, yes, no, 240 ) 1.0, 0.0;
    ( yes, yes, no, 241 ) 1.0, 0.0;
    ( yes, yes, no, 242 ) 0.0, 1.0;
    ( yes, yes, no, 243 ) 0.0, 1.0;
    ( yes, yes, no, 244 ) 1.0, 0.0;
    ( yes, yes, no, 245 ) 1.0, 0.0;
    ( yes, yes, no, 246 ) 0.0, 1.0;
    ( yes, yes, no, 247 ) 0.0, 1.0;
    ( yes, yes, no, 248 ) 1.0, 0.0;
    ( yes, yes, no, 249 ) 1.0, 0.0;
    ( yes, yes, no, 250 ) 0.0, 1.0;
    ( yes, yes, no, 251 ) 0.0, 1.0;
    ( yes, yes, no, 252 ) 1.0, 0.0;
    ( yes, yes, no, 253 ) 1.0, 0.0;
    ( yes, yes, no, 254 ) 0.0, 1.0;
    ( yes, yes, no, 255 ) 0.0, 1.0;
    ( yes, yes, yes, 0 ) 1.0, 0.0;
    ( yes, yes, yes, 1 ) 0.0, 1.0;
    ( yes, yes, yes, 2 ) 1.0, 0.0;
    ( yes, yes, yes, 3 ) 0.0, 1.0;
    ( yes, yes, yes, 4 ) 1.0, 0.0;
    ( yes, yes, yes, 5 ) 0.0, 1.0;
    ( yes, yes, yes, 6 ) 1.0, 0.0;
    ( yes, yes, yes, 7 ) 0.0, 1.0;
    ( yes, yes, yes, 8 ) 1.0, 0.0;
    ( yes, yes, yes, 9 ) 0.0, 1.0;
    ( yes, yes, yes, 10 ) 1.0, 0.0;
    ( yes, yes, yes, 11 ) 0.0, 1.0;
    ( yes, yes, yes, 12 ) 1.0, 0.0;
    ( yes, yes, yes, 13 ) 0.0, 1.0;
    ( yes, yes, yes, 14 ) 1.0, 0.0;
    ( yes, yes, yes, 15 ) 0.0, 1.0;
    ( yes, yes, yes, 16 ) 1.0, 0.0;
    ( yes, yes, yes, 17 ) 0.0, 1.0;
    ( yes, yes, yes, 18 ) 1.0, 0.0;
    ( yes, yes, yes, 19 ) 0.0, 1.0;
    ( yes, yes, yes, 20 ) 1.0, 0.0;
    ( yes, yes, yes, 21 ) 0.0, 1.0;
    ( yes, yes, yes, 22 ) 1.0, 0.0;
    ( yes, yes, yes, 23 ) 0.0, 1.0;
    ( yes, yes, yes, 24 ) 1.0, 0.0;
    ( yes, yes, yes, 25 ) 0.0, 1.0;
    ( yes, yes, yes, 26 ) 1.0, 0.0;
    ( yes, yes, yes, 27 ) 0.0, 1.0;
    ( yes, yes, yes, 28 ) 1.0, 0.0;
    ( yes, yes, yes, 29 ) 0.0, 1.0;
    ( yes, yes, yes, 30 ) 1.0, 0.0;
    ( yes, yes, yes, 31 ) 0.0, 1.0;
    ( yes, yes, yes, 32 ) 1.0, 0.0;
    ( yes, yes, yes, 33 ) 0.0, 1.0;
    ( yes, yes, yes, 34 ) 1.0, 0.0;
    ( yes, yes, yes, 35 ) 0.0, 1.0;
    ( yes, yes, yes, 36 ) 1.0, 0.0;
    ( yes, yes, yes, 37 ) 0.0, 1.0;
    ( yes, yes, yes, 38 ) 1.0, 0.0;
    ( yes, yes, yes, 39 ) 0.0, 1.0;
    ( yes, yes, yes, 40 ) 1.0, 0.0;
    ( yes, yes, yes, 41 ) 0.0, 1.0;
    ( yes, yes, yes, 42 ) 1.0, 0.0;
    ( yes, yes, yes, 43 ) 0.0, 1.0;
    ( yes, yes, yes, 44 ) 1.0, 0.0;
    ( yes, yes, yes, 45 ) 0.0, 1.0;
    ( yes, yes, yes, 46 ) 1.0, 0.0;
    ( yes, yes, yes, 47 ) 0.0, 1.0;
    ( yes, yes, yes, 48 ) 1.0, 0.0;
    ( yes, yes, yes, 49 ) 0.0, 1.0;
    ( yes, yes, yes, 50 ) 1.0, 0.0;
    ( yes, yes, yes, 51 ) 0.0, 1.0;
    ( yes, yes, yes, 52 ) 1.0, 0.0;
    ( yes, yes, yes, 53 ) 0.0, 1.0;
    ( yes, yes, yes, 54 ) 1.0, 0.0;
    ( yes, yes, yes, 55 ) 0.0, 1.0;
    ( yes, yes, yes, 56 ) 1.0, 0.0;
    ( yes, yes, yes, 57 ) 0.0, 1.0;
    ( yes, yes, yes, 58 ) 1.0, 0.0;
    ( yes, yes, yes, 59 ) 0.0, 1.0;
    ( yes, yes, yes, 60 ) 1.0, 0.0;
    ( yes, yes, yes, 61 ) 0.0, 1.0;
    ( yes, yes, yes, 62 ) 1.0, 0.0;
    ( yes, yes, yes, 63 ) 0.0, 1.0;
    ( yes, yes, yes, 64 ) 1.0, 0.0;
    ( yes, yes, yes, 65 ) 0.0, 1.0;
    ( yes, yes, yes, 66 ) 1.0, 0.0;
    ( yes, yes, yes, 67 ) 0.0, 1.0;
    ( yes, yes, yes, 68 ) 1.0, 0.0;
    ( yes, yes, yes, 69 ) 0.0, 1.0;
    ( yes, yes, yes, 70 ) 1.0, 0.0;
    ( yes, yes, yes, 71 ) 0.0, 1.0;
    ( yes, yes, yes, 72 ) 1.0, 0.0;
    ( yes, yes, yes, 73 ) 0.0, 1.0;
    ( yes, yes, yes, 74 ) 1.0, 0.0;
    ( yes, yes, yes, 75 ) 0.0, 1.0;
    ( yes, yes, yes, 76 ) 1.0, 0.0;
    ( yes, yes, yes, 77 ) 0.0, 1.0;
    ( yes, yes, yes, 78 ) 1.0, 0.0;
    ( yes, yes, yes, 79 ) 0.0, 1.0;
    ( yes, yes, yes, 80 ) 1.0, 0.0;
    ( yes, yes, yes, 81 ) 0.0, 1.0;
    ( yes, yes, yes, 82 ) 1.0, 0.0;
    ( yes, yes, yes, 83 ) 0.0, 1.0;
    ( yes, yes, yes, 84 ) 1.0, 0.0;
    ( yes, yes, yes, 85 ) 0.0, 1.0;
    ( yes, yes, yes, 86 ) 1.0, 0.0;
    ( yes, yes, yes, 87 ) 0.0, 1.0;
    ( yes, yes, yes, 88 ) 1.0, 0.0;
    ( yes, yes, yes, 89 ) 0.0, 1.0;
    ( yes, yes, yes, 90 ) 1.0, 0.0;
    ( yes, yes, yes, 91 ) 0.0, 1.0;
    ( yes, yes, yes, 92 ) 1.0, 0.0;
    ( yes, yes, yes, 93 ) 0.0, 1.0;
    ( yes, yes, yes, 94 ) 1.0, 0.0;
    ( yes, yes, yes, 95 ) 0.0, 1.0;
    ( yes, yes, yes, 96 ) 1.0, 0.0;
    ( yes, yes, yes, 97 ) 0.0, 1.0;
    ( yes, yes, yes, 98 ) 1.0, 0.0;
    ( yes, yes, yes, 99 ) 0.0, 1.0;
    ( yes, yes, yes, 100 ) 1.0, 0.0;
    ( yes, yes, yes, 101 ) 0.0, 1.0;
    ( yes, yes, yes, 102 ) 1.0, 0.0;
    ( yes, yes, yes, 103 ) 0.0, 1.0;
    ( yes, yes, yes, 104 ) 1.0, 0.0;
    ( yes, yes, yes, 105 ) 0.0, 1.0;
    ( yes, yes, yes, 106 ) 1.0, 0.0;
    ( yes, yes, yes, 107 ) 0.0, 1.0;
    ( yes, yes, yes, 108 ) 1.0, 0.0;
    ( yes, yes, yes, 109 ) 0.0, 1.0;
    ( yes, yes, yes, 110 ) 1.0, 0.0;
    ( yes, yes, yes, 111 ) 0.0, 1.0;
    ( yes, yes, yes, 112 ) 1.0, 0.0;
    ( yes, yes, yes, 113 ) 0.0, 1.0;
    ( yes, yes, yes, 114 ) 1.0, 0.0;
    ( yes, yes, yes, 115 ) 0.0, 1.0;
    ( yes, yes, yes, 116 ) 1.0, 0.0;
    ( yes, yes, yes, 117 ) 0.0, 1.0;
    ( yes, yes, yes, 118 ) 1.0, 0.0;
    ( yes, yes, yes, 119 ) 0.0, 1.0;
    ( yes, yes, yes, 120 ) 1.0, 0.0;
    ( yes, yes, yes, 121 ) 0.0, 1.0;
    ( yes, yes, yes, 122 ) 1.0, 0.0;
    ( yes, yes, yes, 123 ) 0.0, 1.0;
    ( yes, yes, yes, 124 ) 1.0, 0.0;
    ( yes, yes, yes, 125 ) 0.0, 1.0;
    ( yes, yes, yes, 126 ) 1.0, 0.0;
    ( yes, yes, yes, 127 ) 0.0, 1.0;
    ( yes, yes, yes, 128 ) 1.0, 0.0;
    ( yes, yes, yes, 129 ) 0.0, 1.0;
    ( yes, yes, yes, 130 ) 1.0, 0.0;
    ( yes, yes, yes, 131 ) 0.0, 1.0;
    ( yes, yes, yes, 132 ) 1.0, 0.0;
    ( yes, yes, yes, 133 ) 0.0, 1.0;
    ( yes, yes, yes, 134 ) 1.0, 0.0;
    ( yes, yes, yes, 135 ) 0.0, 1.0;
    ( yes, yes, yes, 136 ) 1.0, 0.0;
    ( yes, yes, yes, 137 ) 0.0, 1.0;
    ( yes, yes, yes, 138 ) 1.0, 0.0;
    ( yes, yes, yes, 139 ) 0.0, 1.0;
    ( yes, yes, yes, 140 ) 1.0, 0.0;
    ( yes, yes, yes, 141 ) 0.0, 1.0;
    ( yes, yes, yes, 142 ) 1.0, 0.0;
    ( yes, yes, yes, 143 ) 0.0, 1.0;
    ( yes, yes, yes, 144 ) 1.0, 0.0;
    ( yes, yes, yes, 145 ) 0.0, 1.0;
    ( yes, yes, yes, 146 ) 1.0, 0.0;
    ( yes, yes, yes, 147 ) 0.0, 1.0;
    ( yes, yes, yes, 148 ) 1.0, 0.0;
    ( yes, yes, yes, 149 ) 0.0, 1.0;
    ( yes, yes, yes, 150 ) 1.0, 0.0;
    ( yes, yes, yes, 151 ) 0.0, 1.0;
    ( yes, yes, yes, 152 ) 1.0, 0.0;
    ( yes, yes, yes, 153 ) 0.0, 1.0;
    ( yes, yes, yes, 154 ) 1.0, 0.0;
    ( yes, yes, yes, 155 ) 0.0, 1.0;
    ( yes, yes, yes, 156 ) 1.0, 0.0;
    ( yes, yes, yes, 157 ) 0.0, 1.0;
    ( yes, yes, yes, 158 ) 1.0, 0.0;
    ( yes, yes, yes, 159 ) 0.0, 1.0;
    ( yes, yes, yes, 160 ) 1.0, 0.0;
    ( yes, yes, yes, 161 ) 0.0, 1.0;
    ( yes, yes, yes, 162 ) 1.0, 0.0;
    ( yes, yes, yes, 163 ) 0.0, 1.0;
    ( yes, yes, yes, 164 ) 1.0, 0.0;
    ( yes, yes, yes, 165 ) 0.0, 1.0;
    ( yes, yes, yes, 166 ) 1.0, 0.0;
    ( yes, yes, yes, 167 ) 0.0, 1.0;
    ( yes, yes, yes, 168 ) 1.0, 0.0;
    ( yes, yes, yes, 169 ) 0.0, 1.0;
    ( yes, yes, yes, 170 ) 1.0, 0.0;
    ( yes, yes, yes, 171 ) 0.0, 1.0;
    ( yes, yes, yes, 172 ) 1.0, 0.0;
    ( yes, yes, yes, 173 ) 0.0, 1.0;
    ( yes, yes, yes, 174 ) 1.0, 0.0;
    ( yes, yes, yes, 175 ) 0.0, 1.0;
    ( yes, yes, yes, 176 ) 1.0, 0.0;
    ( yes, yes, yes, 177 ) 0.0, 1.0;
    ( yes, yes, yes, 178 ) 1.0, 0.0;
    ( yes, yes, yes, 179 ) 0.0, 1.0;
    ( yes, yes, yes, 180 ) 1.0, 0.0;
    ( yes, yes, yes, 181 ) 0.0, 1.0;
    ( yes, yes, yes, 182 ) 1.0, 0.0;
    ( yes, yes, yes, 183 ) 0.0, 1.0;
    ( yes, yes, yes, 184 ) 1.0, 0.0;
    ( yes, yes, yes, 185 ) 0.0, 1.0;
    ( yes, yes, yes, 186 ) 1.0, 0.0;
    ( yes, yes, yes, 187 ) 0.0, 1.0;
    ( yes, yes, yes, 188 ) 1.0, 0.0;
    ( yes, yes, yes, 189 ) 0.0, 1.0;
    ( yes, yes, yes, 190 ) 1.0, 0.0;
    ( yes, yes, yes, 191 ) 0.0, 1.0;
    ( yes, yes, yes, 192 ) 1.0, 0.0;
    ( yes, yes, yes, 193 ) 0.0, 1.0;
    ( yes, yes, yes, 194 ) 1.0, 0.0;
    ( yes, yes, yes, 195 ) 0.0, 1.0;
    ( yes, yes, yes, 196 ) 1.0, 0.0;
    ( yes, yes, yes, 197 ) 0.0, 1.0;
    ( yes, yes, yes, 198 ) 1.0, 0.0;
    ( yes, yes, yes, 199 ) 0.0, 1.0;
    ( yes, yes, yes, 200 ) 1.0, 0.0;
    ( yes, yes, yes, 201 ) 0.0, 1.0;
    ( yes, yes, yes, 202 ) 1.0, 0.0;
    ( yes, yes, yes, 203 ) 0.0, 1.0;
    ( yes, yes, yes, 204 ) 1.0, 0.0;
    ( yes, yes, yes, 205 ) 0.0, 1.0;
    ( yes, yes, yes, 206 ) 1.0, 0.0;
    ( yes, yes, yes, 207 ) 0.0, 1.0;
    ( yes, yes, yes, 208 ) 1.0, 0.0;
    ( yes, yes, yes, 209 ) 0.0, 1.0;
    ( yes, yes, yes, 210 ) 1.0, 0.0;
    ( yes, yes, yes, 211 ) 0.0, 1.0;
    ( yes, yes, yes, 212 ) 1.0, 0.0;
    ( yes, yes, yes, 213 ) 0.0, 1.0;
    ( yes, yes, yes, 214 ) 1.0, 0.0;
    ( yes, yes, yes, 215 ) 0.0, 1.0;
    ( yes, yes, yes, 216 ) 1.0, 0.0;
    ( yes, yes, yes, 217 ) 0.0, 1.0;
    ( yes, yes, yes, 218 ) 1.0, 0.0;
    ( yes, yes, yes, 219 ) 0.0, 1.0;
    ( yes, yes, yes, 220 ) 1.0, 0.0;
    ( yes, yes, yes, 221 ) 0.0, 1.0;
    ( yes, yes, yes, 222 ) 1.0, 0.0;
    ( yes, yes, yes, 223 ) 0.0, 1.0;
    ( yes, yes, yes, 224 ) 1.0, 0.0;
    ( yes, yes, yes, 225 ) 0.0, 1.0;
    ( yes, yes, yes, 226 ) 1.0, 0.0;
    ( yes, yes, yes, 227 ) 0.0, 1.0;
    ( yes, yes, yes, 228 ) 1.0, 0.0;
    ( yes, yes, yes, 229 ) 0.0, 1.0;
    ( yes, yes, yes, 230 ) 1.0, 0.0;
    ( yes, yes, yes, 231 ) 0.0, 1.0;
    ( yes, yes, yes, 232 ) 1.0, 0.0;
    ( yes, yes, yes, 233 ) 0.0, 1.0;
    ( yes, yes, yes, 234 ) 1.0, 0.0;
    ( yes, yes, yes, 235 ) 0.0, 1.0;
    ( yes, yes, yes, 236 ) 1.0, 0.0;
    ( yes, yes, yes, 237 ) 0.0, 1.0;
    ( yes, yes, yes, 238 ) 1.0, 0.0;
    ( yes, yes, yes, 239 ) 0.0, 1.0;
    ( yes, yes, yes, 240 ) 1.0, 0.0;
    ( yes, yes, yes, 241 ) 0.0, 1.0;
    ( yes, yes, yes, 242 ) 1.0, 0.0;
    ( yes, yes, yes, 243 ) 0.0, 1.0;
    ( yes, yes, yes, 244 ) 1.0, 0.0;
    ( yes, yes, yes, 245 ) 0.0, 1.0;
    ( yes, yes, yes, 246 ) 1.0, 0.0;
    ( yes, yes, yes, 247 ) 0.0, 1.0;
    ( yes, yes, yes, 248 ) 1.0, 0.0;
    ( yes, yes, yes, 249 ) 0.0, 1.0;
    ( yes, yes, yes, 250 ) 1.0, 0.0;
    ( yes, yes, yes, 251 ) 0.0, 1.0;
    ( yes, yes, yes, 252 ) 1.0, 0.0;
    ( yes, yes, yes, 253 ) 0.0, 1.0;
    ( yes, yes, yes, 254 ) 1.0, 0.0;
    ( yes, yes, yes, 255 ) 0.0, 1.0;

}
probability ( t2db | U_t2db ) {
    ( 0 ) 1.0, 0.0;
    ( 1 ) 0.0, 1.0;

}
